tree
version=v4
num_class=1
num_tree_per_iteration=1
label_index=0
max_feature_idx=30
objective=binary sigmoid:1
feature_names=Column_0 Column_1 Column_2 Column_3 Column_4 Column_5 Column_6 Column_7 Column_8 Column_9 Column_10 Column_11 Column_12 Column_13 Column_14 Column_15 Column_16 Column_17 Column_18 Column_19 Column_20 Column_21 Column_22 Column_23 Column_24 Column_25 Column_26 Column_27 Column_28 Column_29 Column_30
feature_infos=[-0.94483484013214114:2.7868708899221564] [-7.9053987634016805:0.5844938074042012] [-16.69483349944764:0.68330700196654381] [-6.0597320735333495:1.1533517193282601] [-7.0680169391162408:13.433454527983764] [-0.97696424802030857:8.5487342098769386] [-10.129064771042248:4.004118345960455] [-2.7721303994129145:8.3659683449303497] [-4.2463470013353337:4.1999289818500873] [-3.5087810954571155:7.382842995682374] [-8.1844295736177681:5.9377306231841676] [-6.6603562195489667:3.737019452043282] [-2.5184017210239893:3.7671236795277521] [-6.6125882387881267:9.054884371539929] [-0.076122034384938878:32.618628557107321] [-6.0522875976709365:6.8997746570055831] [-7.1035811513013147:1.6900829217187581] [-0.15578812214788476:18.013103160629719] [-1.5081521252795247:20.768468997616747] [-0.41325708487816631:19.815416627780067] [-2.7911233705946952:5.7130113145439063] [-0.700328796400569:3.0196951183035634] [-2.7368943519383571:11.335553739550189] [-2.8174017726545229:0.70943571555209251] [-8.3893775761512135:2.89533545328305] none [-2.8072903046416107:1.6099795183938528] [-28.136833431059674:0.090511405203297451] [-0.14126106276864706:42.689395735887665] [-2.8798335193661466:10.510926207668627] [-12.319295638897575:1.4575561910244703]
tree_sizes=3451 3473 3450 3457 3449 3463 3468 3442 3468 3460 3457 3470 3460 3473 3468 3471 3469 3477 3455 3455 3464 3474 3473 3472 3468 3466 3463 3472 3466 3476 3458 3467 3473 3476 3460 3474 3473 3461 3474 3471 3484 3460 3484 3467 3480 3474 3478 3469 3462 3466 3465 3486 3469 3472 3460 3478 3475 3469 3471 3483 3478 3463 3467 3443 3459 3465 3476 3485 3469 3433 3433 3448 3459 3451 3450 3462 3447 3464 3480 3454 3459 3463 3477 3450 3454 3444 3467 3438 3444 3452 3450 3451 3455 3457 3468 3431 3458 3449 3436 3467 3445 3453 3456 3431 3442 3453 3456 3455 3464 3420 3462 3462 3444 3433 3437 3422 3428 3432 3431 3451 3447 3432 3434 3418 3435 3426 3437 3450 3441 3414 3440 3432 3428 3446 3435 3426 3422 3463 3416 3443 3440 3456 3428 3450 3444 3425 3421 3436 3429 3445 3444 3433 3437 3455 3419 3425 3443 3444 3435 3460 3433 3433 3461 3447 3457 3402 3437 3445 3420 3465 3416 3413 3436 3445 3446 3430 3433 3422 3443 3434 3422 3445 3420 3430 3435 3426 3426 3454 3443 3442 3434 3432 3423 3420 3422 3417 3425 3423 3414 3448 3451 3423 3430 3435 3429 3445 3450 3448 3430 3426 3445 3423 3439 3429 3454 3401 3471 3455 3427 3448 3428 3429 3444 3439 3437 3421 3430 3447 3444 3429 3440 3449 3442 3474 3431 3422 3402 3430 3418 3436 3415 3440 3441 3457 3419 3411 3433 3422 3431 3426 3438 3448 3430 3427 3450 3457 3462 3422 3456 3443 3462 3423 3422 3454 3447 3444 3438 3426 3416 3434 3445 3437 3409 3448 3432 3435 3455 3443 3425 3459 3440 3431 3438 3429 3433 3442 3462 3422 3447 3429 3445 3436 3426 3419 3428 3430 3445 3445 3433 3426

Tree=0
num_leaves=31
num_cat=0
split_feature=17 3 9 10 12 0 26 26 21 13 2 2 26 16 26 16 0 2 19 7 4 13 4 2 2 26 2 4 2 20
split_gain=5214.57 983.026 258.164 248.934 211.653 209.295 163.061 107.725 107.165 81.1054 74.9928 66.7382 57.0108 49.4687 46.7682 46.555 39.8866 43.5685 37.9976 38.4161 31.7062 27.2287 28.4122 24.8088 22.0156 20.9606 20.8993 19.818 18.9283 18.9998
threshold=-0.14350188243813525 1.1080830093999523 -0.073080695619658256 -0.42966078827111343 -1.131740554904078 2.7672303334481869 0.59626108822215051 -1.4277129078272279 -0.4660577699596265 -0.67793952275477309 -0.011740103094726588 0.6747987368954752 -0.56373624897719454 0.71104333077120263 -1.7148866032505679 1.6353234527944518 1.3531102673223476 -0.23339000774642041 0.30934339738781585 -0.51719541870510266 0.58360199825481052 1.2211480663759007 0.19376057887039286 0.67230609873152414 0.47636770866184169 -1.9246894169251771 0.31285028581599045 -0.11375384955225427 -0.24977015825110649 -0.51044141415169031
decision_type=2 2 2 2 2 2 2 2 2 2 2 2 2 2 2 2 2 2 2 2 2 2 2 2 2 2 2 2 2 2
left_child=3 2 4 5 12 9 7 -5 21 26 -4 -3 -2 -7 -12 20 17 -6 19 -18 23 22 -9 -10 -16 -19 -1 -8 -11 -30
right_child=1 11 10 6 16 13 27 8 15 28 14 -13 -14 -15 24 -17 18 25 -20 -21 -22 -23 -24 -25 -26 -27 -28 -29 29 -31
leaf_value=0.0010720565989887222 0.094027355202530818 -0.011599772753322869 0.087084577553026676 0.035943892043492451 0.049066241003965609 -0.032539344984026081 -0.070865298773356802 -0.04521884305395224 0.010026648465609134 0.018809237195344778 0.08910138730249019 -0.070828074019889692 -0.0012373083041758699 0.076299430329758722 0.057763892401974014 0.095982141808888241 -0.0062693730663790003 0.049066241003965609 0.087206828624597485 -0.096575530987404276 -0.06557587723428987 -0.084493691308032623 -0.071591098030550429 -0.072521696623042087 0.024371598286614924 -0.009575552538373314 -0.029989284691145059 -0.091441360562117227 -0.050260413236411512 -0.087850268168400067
leaf_weight=105.11318157613277 126.62138825654984 79.285909682512283 1042.2813726067543 33.647886231541634 66.815968304872513 13.123705476522444 154.47030809521675 203.3628051429987 59.678502410650253 9.3146565556526166 97.147232472896576 118.86623354256153 17.92850661277771 51.054581642150879 167.41763888299465 9.4112933427095395 25.975158646702766 17.817591547966003 5.9114684164524069 21.544281959533691 27.861611157655716 133.22179964184761 205.162691578269 10.739790752530096 69.998154103755951 105.25182540714741 111.70359086990356 482.73511213064194 434.60149972140789 36.434281960129738
leaf_count=419 353 329 2999 119 225 58 759 932 231 35 277 584 72 154 545 26 106 60 17 113 135 678 1010 53 258 434 490 2500 2020 187
internal_value=-4.51843e-09 0.0584661 0.070323 -0.0551302 0.0342915 -0.0323607 -0.0682602 -0.051289 -0.0558086 -0.0403146 0.0804733 -0.0471293 0.0822117 0.0540432 0.059877 -0.0102536 0.00582299 0.0165616 -0.0323404 -0.0472122 -0.0204268 -0.0648643 -0.0584631 -0.00256315 0.0479187 -0.00108558 -0.0149307 -0.0864533 -0.0517722 -0.053168
internal_weight=4044.5 1962.86 1764.71 2081.64 387.866 761.345 1320.29 683.086 649.438 697.167 1376.84 198.152 144.55 64.1783 334.563 107.691 243.316 189.885 53.4309 47.5194 98.2799 541.747 408.525 70.4183 237.416 123.069 216.817 637.205 480.35 471.036
internal_count=16178 6372 5459 9806 1380 3363 6443 3184 3065 3151 4079 913 425 212 1080 445 955 719 236 219 419 2620 1942 284 803 494 909 3259 2242 2207
is_linear=0
shrinkage=1


Tree=1
num_leaves=31
num_cat=0
split_feature=19 2 13 9 9 12 6 1 2 23 26 2 20 24 26 26 26 20 2 22 30 2 26 24 11 11 21 21 4 7
split_gain=4591.28 970.39 251.586 245.378 217.986 168.772 119.283 74.3039 66.0395 63.8951 54.6168 51.0029 48.3116 49.776 46.1962 44.1638 36.4511 36.3244 36.9185 35.7771 32.1936 30.8953 27.7513 25.7112 23.5769 24.0162 22.9717 22.2054 19.3939 20.1012
threshold=-0.29382412060790791 0.62569756387577635 1.0000000180025095e-35 -0.75996498681136193 -0.073080695619658256 -1.1576468969298079 -0.033426725929201005 0.58377768306578881 -0.12481603479101459 0.67756297902671869 -0.56373624897719454 0.6587537814256329 1.1340904446442182 1.1140819156969253 -1.7148866032505679 -1.6082814571645174 -1.4568406051624587 0.8352293347211811 0.61783959621223405 0.84900305501872975 1.0000000180025095e-35 -0.032634026799977768 -1.0071957439618309 -0.15431614860113249 1.0000000180025095e-35 -0.28802538820476398 -0.31764180356438149 -0.60715218161596896 -0.027008494265769002 0.60003966983227086
decision_type=2 2 2 2 2 2 2 2 2 2 2 2 2 2 2 2 2 2 2 2 2 2 2 2 2 2 2 2 2 2
left_child=2 4 3 17 5 10 20 -3 -6 11 -2 12 13 16 -10 -8 -5 22 -19 28 -4 -7 -1 -9 25 -22 -23 -17 -18 -30
right_child=1 7 6 9 8 21 15 23 14 -11 -12 -13 -14 -15 -16 27 19 18 -20 -21 24 26 -24 -25 -26 -27 -28 -29 29 -31
leaf_value=0.013772178148744933 0.089582069888541588 -0.01635238104912198 -0.062581543595475742 0.049293495504410867 0.084064853916691093 0.027956886052150239 0.028548045485138396 -0.080954723956601207 0.085535232737058903 -0.044314081367142814 -0.0041566744617443337 -0.062844943179270474 0.054147592830016723 0.05061974371133008 0.047911920380319439 -0.081885595545106563 -0.0084382192846697204 0.01443810729218708 -0.067609824288625706 0.0840572029550129 -0.04698065725522188 -0.02693984683636921 -0.074940004419510264 0.05000522321613976 -0.043464221007696008 0.014477988695507704 0.015570101422300007 -0.053990004559770856 -0.061130085530727421 -0.0092780572329456325
leaf_weight=9.1288266479969007 124.87646488845348 102.30916252732277 184.51687054336071 25.043984979391098 964.2021980881691 118.81894916296005 9.6704110801219922 101.77699175477028 117.96301126480103 100.03264524042606 17.747631847858429 29.716784983873367 44.46590855717659 40.591919139027596 264.5985052138567 684.34863412380219 186.12776057422161 27.00830340385437 27.845979273319244 9.0376000553369504 26.274815499782562 69.307582452893257 257.00399015843868 3.891173228621482 238.49351166188717 40.239647999405861 58.692368239164352 79.641166746616364 42.678632438182831 33.254605159163475
leaf_count=35 349 433 894 84 2765 431 35 518 336 460 72 144 146 135 887 3499 767 104 137 26 122 302 1290 13 1096 155 223 377 206 137
internal_value=1.92518e-07 0.0553377 -0.0513506 -0.0300007 0.0675636 0.0346172 -0.0654118 -0.046725 0.0770907 -0.00847798 0.0779176 0.00024587 0.00516417 -0.00130411 0.0595131 -0.0776336 -0.00842126 -0.0642607 -0.0272123 -0.0137529 -0.0460959 0.00959618 -0.071897 -0.0761322 -0.0361228 -0.00979966 -0.00744758 -0.0789777 -0.0171261 -0.0384217
internal_weight=4039.31 1944.18 2095.12 831.937 1736.21 389.443 1263.19 207.977 1346.76 510.95 142.624 410.917 381.2 336.735 382.562 773.66 296.143 320.987 54.8543 271.099 489.525 246.819 266.133 105.668 305.008 66.5145 128 763.99 262.061 75.9332
internal_count=16178 6329 9849 3671 5365 1377 6178 964 3988 2105 421 1645 1501 1355 1223 3911 1220 1566 241 1136 2267 956 1325 531 1373 277 525 3876 1110 343
is_linear=0
shrinkage=0.05


Tree=2
num_leaves=31
num_cat=0
split_feature=17 3 9 10 0 26 26 26 21 0 13 1 2 30 4 26 0 2 10 30 0 20 19 7 2 2 6 2 18 6
split_gain=4270.94 807.298 213.67 209.716 180.707 143.553 139.53 89.988 94.7963 72.3752 66.6353 65.094 62.8887 48.3415 41.2189 38.9472 34.7637 37.8285 37.6825 29.6409 27.1739 25.5183 25.4832 24.2581 19.6409 18.7576 18.3179 18.1711 17.9809 47.7219
threshold=-0.14350188243813525 1.1080830093999523 -0.073080695619658256 -0.42966078827111343 2.7672303334481869 -1.5689066693060971 0.59626108822215051 -1.1541192214342273 -0.4660577699596265 0.25323910478002815 -0.67793952275477309 0.58388006105597501 -0.011740103094726588 0.76806732667927557 0.43237089529242778 -1.7148866032505679 1.3138291543744074 -0.39185745061549732 -0.39458809623926888 1.1102862999773218 -0.68950760597053118 1.1340904446442182 -0.065307669040550673 0.54543614285426567 0.47282156857170449 0.24986204888543395 -1.200979841177424 0.31285028581599045 -0.45881035850213542 -0.12246812851129281
decision_type=2 2 2 2 2 2 2 2 2 2 2 2 2 2 2 2 2 2 2 2 2 2 2 2 2 2 2 2 2 2
left_child=3 2 5 4 10 9 7 20 19 -2 27 -3 -4 -6 21 -14 17 -7 -18 -9 -5 -10 -20 -21 -17 -22 -19 -1 -12 -30
right_child=1 11 12 6 13 16 -8 8 14 -11 28 -13 15 -15 -16 24 18 26 22 23 25 -23 -24 -25 -26 -27 -28 -29 29 -31
leaf_value=0.0014641853367769516 0.082499050492287174 -0.01592037948359605 0.079221294553223048 0.081654725091668379 -0.02797346037706977 0.049645517916246842 -0.078964933641220994 -0.064202830038356265 -0.013483173696217913 0.0075646896886912441 -0.054786383732771393 -0.073450542244658357 0.081038477379649435 0.075105565112293757 -0.04849302186313479 0.052906014811710159 0.026767889033310118 0.076106334757584979 -0.087082507152231578 -0.045947882543172745 0.028085737372995009 0.049158170696152831 0.040285175944174856 0.037298527000060373 0.021665737647140765 -0.035596919065001335 -0.0073331666048661627 -0.027507250012915874 -0.0083224798898343423 -0.058325467385517721
leaf_weight=105.08397291600704 133.36517250537872 105.44986453652382 1034.8404151499271 11.617003247141836 14.789252147078512 51.262808084487915 633.05674590170383 476.48361898958683 34.764641776680946 42.489229574799538 287.28411111235619 92.124148190021515 96.415157333016396 49.256458297371864 40.297220841050148 164.35841055214405 16.170622512698174 7.0134543776512137 25.792002931237224 27.691636979579926 23.034322872757912 30.540891766548157 4.6324835717678061 12.794502720236776 72.507462233304977 23.218768268823624 105.86425149440765 111.60405188798904 89.387193128466606 102.35449023544788
leaf_count=419 382 447 2999 34 65 170 3259 2349 146 165 1373 466 277 147 189 536 59 21 134 130 84 102 16 46 267 104 433 490 373 496
internal_value=9.09337e-07 0.053074 0.0638629 -0.0499754 -0.0290663 0.0310401 -0.0620697 -0.0463511 -0.0518948 0.0643937 -0.0364649 -0.0427454 0.0731377 0.0513029 -0.00872645 0.054248 0.00320714 0.0140271 -0.0349084 -0.0607129 0.0132884 0.0158118 -0.0676893 -0.0196402 0.043343 -0.00388257 -0.0021488 -0.0134574 -0.0468723 -0.0350148
internal_weight=4025.54 1952.29 1754.71 2073.26 759.76 386.59 1313.5 680.443 622.573 175.854 695.714 197.574 1368.12 64.0457 105.603 333.281 210.736 164.141 46.5951 516.97 57.8701 65.3055 30.4245 40.4861 236.866 46.2531 112.878 216.688 479.026 191.742
internal_count=16178 6372 5459 9806 3363 1380 6443 3184 2962 547 3151 913 4079 212 437 1080 833 624 209 2525 222 248 150 176 803 188 454 909 2242 869
is_linear=0
shrinkage=0.05


Tree=3
num_leaves=31
num_cat=0
split_feature=17 2 5 10 12 0 26 26 21 6 13 2 26 2 30 30 21 0 30 4 12 1 2 26 2 26 4 26 7 2
split_gain=3876.74 733.301 198.624 192.101 168.195 163.553 128.587 81.8209 81.0013 65.2931 60.5702 57.6605 55.6997 55.0872 43.8796 37.9983 37.4987 28.5875 24.8283 24.5737 24.362 24.1626 21.2638 20.1473 19.618 19.3273 17.9923 17.1737 19.0827 16.8207
threshold=-0.14350188243813525 0.62569756387577635 0.18059768631338757 -0.42966078827111343 -1.131740554904078 2.7672303334481869 0.59626108822215051 -1.4277129078272279 -0.4660577699596265 -1.7863951976220653 -0.67793952275477309 0.66782165067055044 -1.0399694443664937 -0.011740103094726588 0.76806732667927557 1.204369702515226 0.045870580441534629 -0.72878871891847108 1.1102862999773218 0.58360199825481052 1.2982825388316603 0.58382985229249484 -0.10067717743900025 -0.022216438245696541 0.67230609873152414 -1.1541192214342273 -0.081184725183999107 0.016765770129657933 -0.82752747213494648 -0.24977015825110649
decision_type=2 2 2 2 2 2 2 2 2 2 2 2 2 2 2 2 2 2 2 2 2 2 2 2 2 2 2 2 2 2
left_child=3 2 4 5 12 10 7 -5 18 -6 27 -3 -2 -4 -7 19 22 -15 25 24 -20 -13 -11 -18 -10 -9 -8 28 -1 -12
right_child=1 11 13 6 9 14 26 8 15 16 29 21 -14 17 -16 -17 23 -19 20 -21 -22 -23 -24 -25 -26 -27 -28 -29 -30 -31
leaf_value=-0.020356687562660566 0.084355904157683126 -0.00092145061419439389 0.076948998319508702 0.031912942532477485 -0.08457845079403685 -0.026597625542541081 -0.06164273292973145 -0.012603005206078481 0.0088953660373701695 0.023057051434526559 0.021915154277876832 -0.031823322587134925 0.0081942657075870888 0.039884598963623938 0.071694302782472255 0.082078217221548011 0.077198143779935335 0.072093293511267031 -0.03485386887270122 -0.058111207742932415 0.073392683703955935 -0.075006274211390764 -0.01065136929624249 0.024542187234923837 -0.065328495086877728 -0.06131784484908416 -0.080745794375632257 -0.026035071872837295 0.02299764144943494 -0.045991071514998455
leaf_weight=48.834973618388176 145.06276524066925 65.070564672350883 988.44627542793751 33.543912708759308 17.371614322066307 14.776853606104849 168.42039200663567 21.274258330464363 58.679976150393486 81.221615359187126 9.3004755526781064 53.146433547139168 28.766508474946022 179.92648628354073 49.025556683540344 10.44566974043846 29.780415385961533 111.63691495358944 35.43735858798027 27.679172962903976 6.0913306921720496 82.957887917757034 110.34508711099625 46.579889759421349 10.494548082351683 474.01728245615959 459.67827335000038 114.90662454068661 52.849024161696434 468.26658193767071
leaf_count=209 408 263 2875 119 91 65 840 90 228 297 35 238 111 615 147 30 87 333 162 135 19 428 457 169 52 2349 2419 503 197 2207
internal_value=1.98543e-06 0.0507412 0.0611955 -0.0477031 0.0329819 -0.0276806 -0.0593256 -0.0442198 -0.0481846 0.00935969 -0.0347221 -0.0396353 0.0717521 0.0713155 0.0489296 -0.00852495 0.0154504 0.052217 -0.0561117 -0.0182965 -0.0189765 -0.0581441 0.00364053 0.0450779 -0.00236522 -0.0592254 -0.0756234 -0.0127906 0.0021762 -0.0446686
internal_weight=4004.03 1940.31 1739.14 2063.72 459.128 757.96 1305.76 677.664 644.12 285.299 694.158 201.175 173.829 1280.01 63.8024 107.299 267.927 291.563 536.82 96.8537 41.5287 136.104 191.567 76.3603 69.1745 495.292 628.099 216.591 101.684 477.567
internal_count=16178 6372 5443 9806 1620 3363 6443 3184 3065 1101 3151 929 519 3823 212 445 1010 948 2620 415 181 666 754 256 280 2439 3259 909 406 2242
is_linear=0
shrinkage=0.05


Tree=4
num_leaves=31
num_cat=0
split_feature=17 3 23 10 12 0 26 26 21 0 30 2 1 3 2 30 4 4 21 20 26 2 30 30 12 26 26 21 4 19
split_gain=3525.32 669.89 184.068 176.88 161.974 148.176 119.308 75.1266 75.4118 68.2479 57.1688 56.7144 54.73 51.9884 42.6134 39.9482 34.7008 33.9923 28.1532 24.0927 23.2817 21.9706 21.8659 21.129 22.5178 22.398 19.1733 17.4329 16.9226 18.4066
threshold=-0.14350188243813525 1.1080830093999523 -0.75450291139313075 -0.42966078827111343 -1.1576468969298079 2.7672303334481869 0.59626108822215051 -1.5324888402443226 -0.4660577699596265 0.99958025079088775 0.79742875230729771 -0.23339000774642041 0.58388006105597501 -0.21621745079593849 -0.24977015825110649 0.76806732667927557 0.43237089529242778 0.59495551670945757 -0.26876902129191244 -0.51044141415169031 -1.3036596467414847 0.47282156857170449 1.0985945807598718 1.1102862999773218 1.2982825388316603 -1.1541192214342273 -1.6819650363934262 0.31150632347496204 -0.11375384955225427 -0.40145868112876465
decision_type=2 2 2 2 2 2 2 2 2 2 2 2 2 2 2 2 2 2 2 2 2 2 2 2 2 2 2 2 2 2
left_child=3 2 13 5 10 14 7 -5 23 11 -4 -6 27 -2 -1 -7 22 -11 -13 26 -15 -22 -10 25 -25 -9 -16 -3 29 -8
right_child=1 12 4 6 9 15 28 8 16 17 -12 18 -14 20 19 -17 -18 -19 -20 -21 21 -23 -24 24 -26 -27 -28 -29 -30 -31
leaf_value=0.021927324778524854 0.077702207358883377 -0.042601276681387037 0.013579894112291652 0.040112843666620046 0.052363420067093339 -0.025297782555711436 -0.063310691290459575 -0.01171756412010078 0.0010523367565463055 -0.0079344451997018662 0.081942224045475395 -0.0161129908957423 -0.067447780863739801 0.076976663933631853 0.038225222106145873 0.068606609245459846 -0.044347336197114971 -0.086131120177891859 0.024591817884650199 -0.069615858395109406 0.054740477399450732 0.018345170998978033 0.074957705756131851 -0.034292972704408196 0.069602730908464056 -0.058663065643969892 -0.034270304867092261 0.00024458935140877797 -0.07730092622121533 3.6254932585464706e-05
leaf_weight=33.502105519175529 750.28294353187084 36.15120629966259 37.202760756015778 26.596477746963501 112.41338098049164 14.759735450148581 138.95876432955265 26.8569565564394 55.504815876483917 45.297769546508789 171.84211605787277 75.729181379079819 90.736043870449066 98.519156351685524 9.2610988765954954 48.678914830088615 40.022780373692513 20.048946052789688 96.749233081936836 48.985702127218246 271.70379713177681 48.933925077319145 12.209737226366995 35.901779100298882 6.1015201508998862 470.7763275206089 600.46146436035633 69.154730692505836 470.09724821150303 12.498749807476996
leaf_count=125 2170 167 140 91 364 65 706 113 222 186 488 318 466 286 33 147 189 107 351 249 868 181 36 165 19 2349 2744 280 2500 53
internal_value=3.37522e-06 0.0486062 0.0585395 -0.0456042 0.0349473 -0.026379 -0.0568178 -0.0422464 -0.04563 0.0141592 0.0697761 0.02473 -0.0389871 0.0698225 -0.0330818 0.0467587 -0.00743735 -0.0319259 0.00671977 -0.0358796 0.055718 0.049186 0.0143784 -0.0532551 -0.0192008 -0.0561294 -0.0331692 -0.0144643 -0.072618 -0.0580831
internal_weight=3975.94 1924.77 1728.72 2051.17 559.283 755.649 1295.53 673.97 647.374 350.239 209.045 284.892 196.042 1169.44 692.21 63.4387 107.737 65.3467 172.478 658.708 419.157 320.638 67.7146 539.637 42.0033 497.633 609.723 105.306 621.555 151.458
internal_count=16178 6372 5459 9806 1954 3363 6443 3184 3093 1326 628 1033 913 3505 3151 212 447 293 669 3026 1335 1049 258 2646 184 2462 2777 447 3259 759
is_linear=0
shrinkage=0.05


Tree=5
num_leaves=31
num_cat=0
split_feature=17 3 5 13 9 26 6 0 3 0 30 2 0 30 2 26 4 2 20 23 30 16 11 3 21 11 18 26 12 5
split_gain=3210.72 611.44 172.423 164.184 167.023 150.183 99.411 66.5838 57.4248 50.7916 50.0395 46.8916 43.134 37.462 34.1167 30.4831 30.4369 29.5671 29.5483 28.6502 28.4759 26.9976 23.7122 23.2441 20.5048 20.2572 19.5985 18.7955 18.7818 18.2056
threshold=-0.14350188243813525 1.1080830093999523 0.18059768631338757 1.0000000180025095e-35 -0.80195680235357247 -1.5689066693060971 -0.033426725929201005 0.25323910478002815 -0.21621745079593849 -0.41453981533495138 0.85779772724262149 0.6747987368954752 0.25323910478002815 1.0399537295264996 0.6587537814256329 -1.6082814571645174 0.66771870641140307 0.66448845280637325 -0.84368112091218272 0.67544401593361902 1.0000000180025095e-35 0.47926752209169815 1.0000000180025095e-35 -0.41888112372052116 -0.64031451778629189 -0.28802538820476398 -0.42365056650747335 0.54230403395058802 1.0302292740059811 -0.84687922381275549
decision_type=2 2 2 2 2 2 2 2 2 2 2 2 2 2 2 2 2 2 2 2 2 2 2 2 2 2 2 2 2 2
left_child=3 2 5 4 12 7 20 -2 -4 13 14 -3 17 23 18 -8 -11 27 24 29 -5 -10 25 -7 -6 -22 -27 28 -1 -12
right_child=1 11 8 6 10 9 15 -9 21 16 19 -13 -14 -15 -16 -17 -18 -19 -20 -21 22 -23 -24 -25 -26 26 -28 -29 -30 -31
leaf_value=-0.012178132547570461 0.075092940878116715 -0.0075337157089386654 0.074322524760470451 -0.052901545060035887 -0.050685025343266812 0.051985461816834638 0.021355053703977864 0.0081623623721188959 0.042580710445331522 -0.010828400329680113 0.065865902345770153 -0.057477862212398804 -0.076175017517104648 0.072878790655176828 -0.062393045764323585 -0.067435643924878289 -0.080203070744764557 -0.072436090929429042 -0.0021826461949073332 -0.042299556704065017 -0.035885569047198494 0.066640140215550023 -0.035250710102115772 -0.0022387656988631789 -0.011982972652261795 -0.044096825479980846 0.04004061030449995 -0.048974976154044551 0.077170962039792013 0.017089050589709154
leaf_weight=44.117976561188698 168.53113400936127 79.0050268471241 767.74469481408596 182.81743016839027 68.560853809118271 24.997454062104225 9.7928421795368177 47.668913006782532 287.78368665277958 75.434182867407799 26.344527512788773 115.9994018226862 146.85269482433796 28.540781781077385 38.35568955540657 748.67182067036629 20.002560943365097 38.002440094947815 236.72518789768219 15.75068525969982 25.641468718647957 196.01824176311493 237.56097581982613 94.392803207039833 68.334396749734879 8.9285345375537855 30.786052539944649 32.418756529688835 6.7863394618034354 69.855834692716599
leaf_count=194 495 329 2257 899 331 81 36 184 965 313 81 584 785 85 193 3915 107 200 980 74 120 596 1105 376 290 42 112 162 21 266
internal_value=5.15281e-06 0.0466427 0.0562026 -0.0436507 -0.025857 0.0300101 -0.0549789 0.0603357 0.0658205 0.00306984 -0.00943059 -0.0372433 -0.0579485 0.0214167 -0.0174857 -0.0662892 -0.0253686 -0.0358871 -0.0128755 0.0202118 -0.0373181 0.0523287 -0.0279132 0.00911449 -0.031366 -0.00124222 0.021125 -0.0192177 -0.000266504 0.0304466
internal_weight=3942.42 1906.12 1711.11 2036.3 792.105 459.568 1244.2 216.2 1251.55 243.368 523.927 195.004 268.178 147.931 411.976 758.465 95.4367 121.326 373.62 111.951 485.734 483.802 302.917 119.39 136.895 65.3561 39.7146 83.3231 50.9043 96.2004
internal_count=16178 6372 5459 9806 3577 1641 6229 679 3818 962 2215 913 1362 542 1794 3951 420 577 1601 421 2278 1561 1379 457 621 274 154 377 215 347
is_linear=0
shrinkage=0.05


Tree=6
num_leaves=31
num_cat=0
split_feature=17 2 23 10 12 0 26 26 23 0 13 11 3 2 2 4 30 10 30 13 4 26 20 3 13 23 18 6 3 26
split_gain=2927.23 560.964 160.303 154.518 136.225 127.302 108.152 64.8279 64.3822 58.9002 50.2777 46.0186 45.7178 45.4638 44.8918 37.6069 34.9266 29.8771 23.5825 22.7679 24.4674 22.2247 18.8526 17.8847 17.3307 16.6495 16.6363 45.7936 19.0206 18.6456
threshold=-0.14350188243813525 0.62569756387577635 -0.75450291139313075 -0.42966078827111343 -1.2023071643531584 2.7672303334481869 0.59626108822215051 -1.5324888402443226 0.49114720091127667 0.92101802489500784 -0.67793952275477309 -0.99218811773736115 -0.039653541488635251 0.66782165067055044 -0.23339000774642041 0.58360199825481052 0.4963157861356014 -0.12870405559073489 0.43190273000551971 1.2211480663759007 0.19376057887039286 -1.9246894169251771 -0.97484962018477372 1.129862219681496 0.034218323169229382 -0.17883361307528226 -0.43004831346852718 -0.12246812851129281 0.92823967099184879 0.58238903783368345
decision_type=2 2 2 2 2 2 2 2 2 2 2 2 2 2 2 2 2 2 2 2 2 2 2 2 2 2 2 2 2 2
left_child=3 2 12 5 11 10 7 -5 15 14 -1 -4 -2 -3 -6 18 -7 -11 -9 20 22 -16 -10 24 -24 -23 -12 28 -28 -29
right_child=1 13 4 6 9 16 -8 8 19 17 26 -13 -14 -15 21 -17 -18 -19 -20 -21 -22 25 23 -25 -26 -27 27 29 -30 -31
leaf_value=-0.010053797924204591 0.071563772181420515 -0.00046573162483963732 0.013800792449116944 0.03813010876591108 0.048018463282194918 -0.03188754168761869 -0.067711565908621429 -0.0097779144145303844 -0.069704918553270198 0.00098977143511408947 -0.046303185623697105 0.076819229233222208 0.049979707110104771 -0.051504909543411442 0.052148495599680135 -0.055876735480049677 0.062646228038907389 -0.065191201454667433 0.04548873555555439 -0.067562523878587966 -0.056025642847944451 0.023260524810537385 -0.004740116945711137 -0.072661541893971213 -0.038596019679934812 -0.012300469132246626 0.012049634558292159 -0.026071845917984778 -0.065103348757961518 -0.069972319620207502
leaf_weight=215.95021018385887 784.7730970531702 64.889958456158638 35.397466272115707 26.497166320681572 111.68134930729866 12.109136134386061 605.80683124065399 59.605964437127113 27.150123953819275 38.826954126358032 299.45910799503326 159.52369716763496 356.91243024170399 133.18081498146057 23.661093592643738 31.039834052324295 50.593589261174202 30.41003891825676 28.546137005090714 128.39173477888107 191.88199178874493 50.127536132931709 87.241067111492157 17.56596551835537 66.698751270771027 95.857011884450912 65.588607728481293 45.479928597807884 9.0962776988744718 51.660475760698318
leaf_count=909 2346 263 133 91 367 55 3259 251 142 155 1452 467 1163 666 77 156 157 156 97 680 977 181 375 93 322 398 263 210 46 271
internal_value=6.77837e-06 0.0448179 0.054163 -0.0418074 0.0318662 -0.0238101 -0.0524312 -0.038503 -0.0416851 0.0132345 -0.0300326 0.0653752 0.0648162 -0.034784 0.0234018 -0.00854671 0.0443899 -0.028078 0.00811899 -0.0492966 -0.0432916 0.00719616 -0.0309918 -0.0248634 -0.0194091 -8.96904e-05 -0.0391872 -0.0267855 0.00265275 -0.0494187
internal_weight=3905.6 1885.24 1687.17 2020.36 545.485 749.937 1270.43 664.619 638.122 350.564 687.235 194.921 1141.69 198.071 281.327 119.192 62.7027 69.237 88.1521 518.93 390.538 169.646 198.656 171.506 153.94 145.985 471.284 171.825 74.6849 97.1404
internal_count=16178 6372 5443 9806 1934 3363 6443 3184 3093 1334 3151 600 3509 929 1023 504 212 311 348 2589 1909 656 932 790 697 579 2242 790 309 481
is_linear=0
shrinkage=0.05


Tree=7
num_leaves=31
num_cat=0
split_feature=17 2 5 10 0 0 30 21 2 4 3 13 24 30 13 0 2 30 2 20 16 1 6 30 2 0 0 17 11 11
split_gain=2672.51 515.126 149.339 143.61 115.591 105.88 91.2004 81.2902 53.2475 53.0993 46.857 46.0283 34.796 31.8927 29.4939 53.8987 46.8636 25.313 22.9807 24.4792 22.4679 20.8346 20.8295 20.5343 19.7041 19.1195 21.9348 17.8245 15.9372 20.5453
threshold=-0.14350188243813525 0.61096858879816629 0.18059768631338757 -0.42966078827111343 2.7672303334481869 0.25323910478002815 0.85779772724262149 -0.48498895113873236 0.66782165067055044 0.39560712124881053 -0.21621745079593849 -0.67793952275477309 0.36685097693699747 0.4963157861356014 0.034218323169229382 0.56748800836354796 0.66625419123464902 0.87820173440618843 0.59401779416097555 1.1066822518535007 0.47926752209169815 0.58382985229249484 -0.066293746718705943 0.71499956205431225 -0.058452316748118939 1.8637647356455671 -0.8073509448143511 -0.15234797502915493 -0.028837785472432088 -0.416353670152877
decision_type=2 2 2 2 2 2 2 2 2 2 2 2 2 2 2 2 2 2 2 2 2 2 2 2 2 2 2 2 2 2
left_child=3 2 5 4 11 6 24 14 23 18 -4 -1 -7 -6 15 16 17 27 19 -9 -12 -10 28 -3 -2 26 -11 -5 29 -16
right_child=1 8 10 7 13 12 -8 9 21 25 20 -13 -14 -15 22 -17 -18 -19 -20 -21 -22 -23 -24 -25 -26 -27 -28 -29 -30 -31
leaf_value=-0.0095561847988323827 0.03275076564077091 -0.009166569187025176 0.069502450086728354 -0.038935371433575824 -0.030378745734788149 -0.068095130826866537 0.069857229265590431 2.4477292529241698e-06 -0.024932536300756918 -0.048826173786212373 0.040193688703980761 -0.037462961746406342 0.0005979876383861918 0.060146561510181266 -0.06022847916002956 -0.070638454972940287 -0.068134107851720013 0.016271841463959331 -0.03500585243743732 0.06548651215018142 0.062579691375669586 -0.065520056422985237 -0.064834684625524094 0.058502800763986874 -0.0020921555577807123 -0.081550471502576716 0.026843400389627705 -0.0044639960615769792 -0.055677300334362946 0.020981914322049468
leaf_weight=215.83837901055813 86.806421414017677 69.830087170004845 742.52305491268635 128.49469001591206 12.075869813561438 22.778251782059669 157.02531917393208 32.448310688138008 52.495860457420349 34.336648061871529 276.66416935622692 468.42487604916096 96.681684270501137 50.074553564190865 12.825338587164877 136.78481978178024 70.058364823460579 37.456837087869644 18.654352679848671 25.476340919733047 188.4210938513279 79.50426934659481 596.70378617942333 13.35483732819557 76.188869625329971 25.238998547196388 13.28140604496002 52.955566048622131 50.846809685230255 19.829118028283119
leaf_count=909 303 290 2257 635 55 121 478 132 238 170 937 2242 386 157 67 747 378 150 86 79 586 428 3235 43 305 141 52 228 263 80
internal_value=8.39697e-06 0.0431202 0.0526252 -0.0400984 -0.0227303 0.0276683 0.0426627 -0.0504248 -0.029634 -0.0158117 0.0617076 -0.0286603 -0.0125002 0.0425574 -0.0551017 -0.044781 -0.0325411 -0.02115 0.0132598 0.0288036 0.049263 -0.0493786 -0.0615616 0.00169734 0.0164641 -0.0463683 -0.0277208 -0.028875 -0.038172 -0.0109142
internal_weight=3864.08 1862.27 1647.09 2001.81 746.414 439.481 320.021 1255.39 215.185 149.436 1207.61 684.263 119.46 62.1504 1105.96 425.75 288.965 218.907 76.579 57.9247 465.085 132 680.205 83.1849 162.995 72.8571 47.6181 181.45 83.5013 32.6545
internal_count=16178 6372 5373 9806 3363 1593 1086 6443 999 660 3780 3151 507 212 5783 2138 1391 1013 297 211 1523 666 3645 333 608 363 222 863 410 147
is_linear=0
shrinkage=0.05


Tree=8
num_leaves=31
num_cat=0
split_feature=17 2 13 9 23 12 6 30 1 0 2 30 3 0 2 23 2 30 2 19 12 4 23 11 19 29 23 11 0 18
split_gain=2444.27 463.284 166.297 152.119 100.535 90.1096 84.7663 54.5006 47.3124 43.4679 40.3492 39.4938 37.9889 35.6354 29.322 27.6801 26.4657 25.0782 23.1538 21.864 21.0212 21.5584 20.8278 20.2553 19.6346 19.2984 19.2013 18.9067 17.7131 17.293
threshold=-0.14055318490779536 0.61096858879816629 1.0000000180025095e-35 -0.80195680235357247 -0.75450291139313075 -1.1576468969298079 -0.033426725929201005 0.85779772724262149 0.58427391259844941 0.25323910478002815 -0.24977015825110649 0.80546916096340904 -0.21621745079593849 0.44964466951972804 0.66929221251364079 0.67544401593361902 -0.032634026799977768 1.0000000180025095e-35 0.6587537814256329 -0.40766836731266015 -1.222885497037407 0.51130488073901714 0.2190546817315053 1.0000000180025095e-35 0.142509828580488 -0.31257533163842888 0.63740862841248014 -0.28802538820476398 -0.49310204123083134 -0.42365056650747335
decision_type=2 2 2 2 2 2 2 2 2 2 2 2 2 2 2 2 2 2 2 2 2 2 2 2 2 2 2 2 2 2
left_child=2 4 3 9 12 11 17 10 -3 14 -5 -6 -2 16 26 20 -7 -4 -12 -8 -9 -22 -18 27 25 -15 -1 -19 -14 -29
right_child=1 8 6 7 5 13 19 15 -10 -11 18 -13 28 24 -16 -17 22 23 -20 -21 21 -23 -24 -25 -26 -27 -28 29 -30 -31
leaf_value=0.0095872762969698086 0.067926133245637552 -0.0097738538665410567 -0.047017955745501272 0.021124977366903455 0.012293597502156244 0.043893789356457547 -0.066646563119658817 0.068264961597507029 -0.060378844931667279 -0.069336550872833191 -0.015823005335724918 0.073259813163746496 0.04359656667405952 -0.0098468922331553643 -0.067322278946848987 -0.039682643041042298 0.022750574609183609 -0.032159318328118421 -0.0557164423985173 -0.049231470545360465 0.025781190209513517 -0.072920928696109416 -0.029972870365881872 -0.030362756247750217 0.041379874468319956 -0.07638379760437787 -0.03708952736138111 -0.039566108672279443 0.071068181042128545 0.039709869847437455
leaf_weight=44.428066253662109 701.46310034394264 127.33798806369305 181.13995505869389 70.311447709798813 32.892807066440582 107.12679354846478 423.77915853261948 28.904544591903687 72.476444080471992 145.59974101185799 337.48762601613998 138.05593356490135 324.71613238751888 56.036592617630959 35.609232947230339 15.571697384119032 63.006514757871628 26.230556607246399 40.764645367860794 313.59207309782505 81.362335473299026 5.9358984977006903 26.656587034463882 236.01033602654934 14.38754867017269 13.528765916824339 43.708792328834534 8.8024412393569929 71.618328168988228 31.481275796890259
leaf_count=185 2170 545 910 265 124 359 2367 89 389 814 1481 419 1089 232 196 74 229 125 209 1627 299 32 117 1117 49 74 218 42 217 115
internal_value=9.98777e-06 0.043525 -0.0367507 -0.0197648 0.0527652 0.03291 -0.0485706 -0.00535204 -0.0281292 -0.050819 -0.0136569 0.0615291 0.0609347 0.0154834 -0.0290311 0.022918 0.0271186 -0.0323044 -0.0201224 -0.0592402 0.0313068 0.0190699 0.00707604 -0.0234944 -0.0117901 -0.0227867 -0.0135607 0.000876236 0.0485607 0.0223872
internal_weight=3820.02 1749.3 2070.72 849.684 1549.49 451.692 1221.04 580.338 199.814 269.346 448.564 170.949 1097.8 280.743 123.746 131.774 196.79 483.665 378.252 737.371 116.203 87.2982 89.6631 302.525 83.9529 69.5654 88.1369 66.5143 396.334 40.2837
internal_count=16178 6013 10165 3862 5079 1603 6303 2449 934 1413 1955 543 3476 1060 599 494 705 2309 1690 3994 420 331 346 1399 355 306 403 282 1306 157
is_linear=0
shrinkage=0.05


Tree=9
num_leaves=31
num_cat=0
split_feature=17 2 9 4 0 26 26 13 2 0 26 20 2 0 20 30 0 30 2 0 20 2 0 26 11 30 4 15 11 18
split_gain=2236.19 447.969 141.407 129.425 109.325 106.767 104.834 55.9667 48.4399 45.9225 43.9734 54.0094 68.0179 42.7908 43.5107 36.3131 35.5902 34.2818 31.4263 29.6212 29.0183 22.3321 20.949 19.6245 18.519 18.3867 21.3085 20.2469 18.7919 31.3979
threshold=-0.14448478161491521 0.61096858879816629 0.37239041521015165 -0.28043990620741538 2.7672303334481869 -1.651136274215478 0.59626108822215051 -0.67793952275477309 0.6747987368954752 0.056833540040328243 -1.1816995423766159 1.0678816790384167 0.66448845280637325 -0.41453981533495138 0.62071817203425927 1.0318562486924276 -0.76806983186641109 0.76806732667927557 0.40149442057974477 -0.8073509448143511 -0.4692132873261094 -0.058452316748118939 0.056833540040328243 -1.651136274215478 1.2976926924556353 1.0000000180025095e-35 -0.90199377365882827 -0.8047730310117357 -0.43296013368098712 -0.33986789760880115
decision_type=2 2 2 2 2 2 2 2 2 2 2 2 2 2 2 2 2 2 2 2 2 2 2 2 2 2 2 2 2 2
left_child=3 2 5 4 7 9 10 -1 23 -2 22 -12 19 15 20 21 18 -6 -4 -13 24 -7 -5 -3 -15 -9 -27 -28 -29 -30
right_child=1 8 16 6 17 13 -8 25 -10 -11 11 12 -14 14 -16 -17 -18 -19 -20 -21 -22 -23 -24 -25 -26 26 27 28 29 -31
leaf_value=-0.0057988181144393094 0.069231505037704449 0.067224649955683446 0.053983441174676509 0.040315433995395888 -0.02814968481257614 0.030169307151853831 -0.064563922513793531 -0.047436230503304359 -0.05043039344286844 0.01680454241966586 -0.045033967908739342 -0.0020708049258506738 -0.059399183923074764 -0.027135289893679027 0.060923604968818761 0.065989825617828915 0.067990151370139085 0.063554334674954069 0.014590735873365566 0.068956483631688742 -0.073364842400367405 -0.0077552480490004896 -0.034832498184828843 -0.0099039302077624184 0.020417636591600785 -0.045165972105173507 -0.033176712540197439 -0.068527774227143678 -0.019295054246083472 0.042288620291079319
leaf_weight=213.10681918263435 156.70311217010021 9.0414087921380979 480.09723050892353 28.044204592704773 13.106590598821638 88.52097775042057 535.9031770080328 214.05229118466377 114.14761297404766 56.948931515216827 442.34107272326946 33.599647387862206 34.301953002810478 59.423229277133942 17.608130216598511 41.734185755252838 542.41897279024124 45.817123427987099 56.59793758392334 26.066754311323166 23.249750271439552 69.133263468742371 13.856198549270628 93.888470694422722 31.236377716064453 123.24658650159836 114.44362716376781 9.5606868863105756 51.706778094172478 34.511180907487869
leaf_count=896 488 28 1574 99 60 313 3046 1096 600 213 2275 140 184 262 56 130 1694 142 210 82 130 281 64 396 118 616 564 51 240 130
internal_value=1.1864e-05 0.0394569 0.0484759 -0.0375378 -0.0224556 0.0277044 -0.0486324 -0.0275384 -0.0280018 0.0552571 -0.0338666 -0.0377207 -0.00329488 0.00991474 -0.0122239 0.0245175 0.0589579 0.0431563 0.0498292 0.0289592 -0.0235311 0.0135389 0.0154645 -0.00312892 -0.0107511 -0.0359998 -0.0286589 -0.0189813 -0.00201953 0.00535556
internal_weight=3774.41 1840.75 1623.67 1933.66 819.552 544.558 1114.11 760.628 217.077 213.652 578.21 536.309 93.9684 330.906 131.517 199.388 1079.11 58.9237 536.695 59.6664 113.909 157.654 41.9004 102.93 90.6596 547.521 333.469 210.222 95.7786 86.218
internal_count=16178 6493 5469 9685 3795 1991 5890 3593 1024 701 2844 2681 406 1290 566 724 3478 202 1784 222 510 594 163 424 380 2697 1601 985 421 370
is_linear=0
shrinkage=0.05


Tree=10
num_leaves=31
num_cat=0
split_feature=17 3 13 9 9 26 4 26 3 0 0 1 0 2 20 4 0 2 26 7 20 0 19 16 4 3 3 26 8 26
split_gain=2048 391.334 144.657 131.914 89.1765 82.6976 64.6747 54.0962 52.5842 44.3011 40.3441 40.319 35.2549 31.0397 38.7806 31.1762 35.653 26.6199 25.4224 21.6606 20.4995 20.4752 34.999 24.4649 19.9563 17.2262 17.1877 17.1759 17.0275 16.8919
threshold=-0.14055318490779536 1.1156076293205941 1.0000000180025095e-35 -0.80195680235357247 0.34223487321646412 -1.651136274215478 -0.21403394112457438 -1.5689066693060971 0.83022639829885914 0.056833540040328243 0.25323910478002815 0.58303328289467371 2.7672303334481869 0.6587537814256329 1.1340904446442182 -0.032675932049369201 2.6886681075523069 0.66929221251364079 -0.84960717517147166 -0.82206924601874942 -1.0263016778014526 -0.37525870238701148 0.70303750144679567 1.146718127920926 0.74952369652468454 -0.62523192603987143 -0.36957743919339542 0.11353314447885283 1.0000000180025095e-35 0.75701869496942664
decision_type=2 2 2 2 2 2 2 2 2 2 2 2 2 2 2 2 2 2 2 2 2 2 2 2 2 2 2 2 2 2
left_child=2 4 3 10 5 9 12 -5 25 -2 17 -3 -4 14 15 16 19 -1 -8 -9 -21 23 24 26 -23 -6 -7 -22 -20 -17
right_child=1 11 6 7 8 21 18 13 -10 -11 -12 -13 -14 -15 -16 29 -18 -19 28 20 27 22 -24 -25 -26 -27 -28 -29 -30 -31
leaf_value=-0.0115884727232086 0.068677608675706658 -0.0055543119429410249 -0.03500779025759776 0.051794208710110493 0.066363973780708324 0.04660945241635038 -0.016146572320060597 -0.022261546325197085 0.025262597680286838 0.014458441036788143 -0.065667004306802959 -0.05496414747421953 0.045815344317518138 -0.048863872761427812 0.040068621111893278 -0.023280173392615868 0.037633249720175461 -0.063536103468451149 -0.050140957520383535 -0.070462139297630288 0.024905151142617977 -0.011695658318344453 0.062822305721573823 0.061501547426701789 -0.084143396334852474 0.052951756663646488 0.0029806285259912691 -0.011640298548376811 -0.067317668642461317 -0.07416410805229369
leaf_weight=87.047608122229576 142.06739456951618 76.235473349690437 562.63833820819855 39.612753301858902 513.8168209195137 28.507110506296158 36.895140871405602 143.47753871977329 121.94445888698101 51.271176770329475 140.297806635499 90.066726356744766 13.823878362774847 44.257145866751671 43.250794678926468 94.412085458636284 48.922657206654549 34.40975633263588 281.13665762543678 8.3998170644044858 79.205998808145523 60.881149381399155 14.218312621116636 30.614048957824707 11.264061719179152 448.25878159701824 108.46466824412346 54.118263080716133 296.39289073646069 19.716171845793724
leaf_count=403 450 324 2809 131 1645 95 168 638 439 193 814 491 47 229 149 432 173 196 1551 44 302 255 45 98 66 1488 424 238 1728 113
internal_value=1.39557e-05 0.0405323 -0.0339032 -0.0179758 0.0484435 0.0296595 -0.0450992 -0.00458854 0.0561942 0.0542993 -0.0474029 -0.0323139 -0.0330696 -0.00875734 -0.00514597 -0.00950861 -0.00180202 -0.0263056 -0.0563855 -0.00856663 0.00529773 0.0109006 -0.0088766 0.0210925 -0.023007 0.0601148 0.0120608 0.0100708 -0.0589562 -0.0320706
internal_weight=3725.63 1697.61 2028.02 837.128 1531.31 447.288 1190.89 575.373 1084.02 193.339 261.755 166.302 576.462 535.76 491.503 448.253 334.124 121.457 614.425 285.202 141.724 253.949 86.3635 167.586 72.1452 962.076 136.972 133.324 577.53 114.128
internal_count=16178 6013 10165 3862 5198 1626 6303 2449 3572 643 1413 815 2856 2318 2089 1940 1395 599 3447 1222 584 983 366 617 321 3133 519 540 3279 545
is_linear=0
shrinkage=0.05


Tree=11
num_leaves=31
num_cat=0
split_feature=17 2 23 10 12 26 13 26 21 2 11 3 21 4 3 30 26 30 30 15 1 2 4 12 30 4 19 16 1 13
split_gain=1876.51 380.876 125.418 114.669 101.728 80.8804 49.3147 45.8921 49.9678 41.7243 38.0606 36.5397 35.7219 27.2347 22.0334 20.9934 20.4342 20.2365 18.8051 19.4823 17.3965 17.3031 18.0306 17.1781 16.2776 15.6646 17.604 17.7112 14.5873 14.5582
threshold=-0.14448478161491521 0.61096858879816629 -0.75450291139313075 -0.42966078827111343 -1.2023071643531584 0.59626108822215051 1.0000000180025095e-35 -1.1541192214342273 -0.4660577699596265 0.66782165067055044 -0.99218811773736115 -0.21621745079593849 0.19430527204071549 0.58360199825481052 0.036562799398042176 -1.2446059433877072 -1.3036596467414847 1.1102862999773218 0.015221997945922926 -1.811758186174502 0.58382985229249484 -0.61326997740461453 0.93828293191597278 1.2982825388316603 0.71499956205431225 -0.081184725183999107 -0.40145868112876465 0.18214466589314429 0.58044684081566933 -0.67793952275477309
decision_type=2 2 2 2 2 2 2 2 2 2 2 2 2 2 2 2 2 2 2 2 2 2 2 2 2 2 2 2 2 2
left_child=3 2 11 6 10 7 14 -5 17 24 -4 -2 21 15 -1 -10 -13 -9 -8 -20 -11 -6 29 -19 -3 26 -7 -28 -18 -23
right_child=1 9 4 5 12 25 18 8 13 20 -12 16 -14 -15 -16 -17 28 23 19 -21 -22 22 -24 -25 -26 -27 27 -29 -30 -31
leaf_value=0.0076591271670995546 0.062572681369692809 -0.0079708746590119225 0.0090499662185869831 0.013309819216415742 0.031700052451596308 -0.0500824686980611 -0.042425330108621886 -0.045751433902378402 -0.066066945725037865 -0.021495557153546507 0.0676573368711893 0.064213969551324843 0.035471087345679365 -0.049067663435919916 -0.020680089916037404 0.022153798646340581 0.03866210554175302 -0.021488534341629707 0.041712524552964196 -0.02415784977546304 -0.058834311607877054 0.0096355942566558814 -0.059747343343708403 0.074274571534231365 0.052383715856433866 -0.06344208738424921 -0.054221671198705523 0.057696913909526859 -0.02832037998551137 -0.017572600862351927
leaf_weight=180.42370226979256 656.73076997697353 71.113165199756622 34.284404173493385 51.413110435009003 37.324241504073143 138.34258961677551 174.40964066982269 433.46659605205059 7.5496133118867865 52.492336630821228 144.28646390140057 88.099755480885506 100.12760806083679 23.837478637695312 110.65116837620735 63.149612873792648 284.21251937747002 32.716082349419594 11.769608572125433 242.74824613332748 76.886752724647522 121.67806567251682 14.136986419558523 5.4652131646871558 13.253545463085173 400.36215050518513 6.3440360873937589 7.9832967668771744 8.3674873113632184 82.497586220502853
leaf_count=722 2170 297 131 202 134 774 901 2333 38 242 470 284 353 126 495 241 986 158 42 1163 441 472 81 17 44 2407 35 31 36 352
internal_value=1.57449e-05 0.0367757 0.0452918 -0.0346999 0.0256117 -0.044357 -0.0189987 -0.0319204 -0.0360275 -0.0258461 0.0564051 0.0554283 0.0101553 -0.00284996 -0.00311393 0.0127332 0.0431032 -0.0426776 -0.0297783 -0.0211118 -0.043685 0.000239701 -0.00513898 -0.00778115 0.0015105 -0.0582457 -0.0446186 0.0081402 0.0367465 -0.00135793
internal_weight=3676.12 1785.49 1571.75 1890.63 534.335 1170.63 720.002 617.598 566.185 213.746 178.571 1037.41 355.764 94.5367 291.075 70.6992 380.68 471.648 428.927 254.518 129.379 255.637 218.313 38.1813 84.3667 553.032 152.67 14.3273 292.58 204.176
internal_count=16178 6493 5469 9685 1993 6362 3323 3115 2913 1024 601 3476 1392 405 1217 279 1306 2508 2106 1205 683 1039 905 175 341 3247 840 66 1022 824
is_linear=0
shrinkage=0.05


Tree=12
num_leaves=31
num_cat=0
split_feature=17 3 13 9 9 6 26 26 3 0 1 0 21 3 18 1 20 30 26 0 19 30 11 4 26 0 0 7 11 18
split_gain=1720.8 331.074 127.925 123.542 80.5862 78.067 72.5221 54.0193 44.879 40.0943 36.8171 34.8828 31.4192 29.9218 27.3754 29.1354 35.7294 22.1177 21.8005 20.213 30.615 22.8228 19.3373 18.562 17.0175 16.9991 16.7244 15.7128 15.577 16.0044
threshold=-0.14055318490779536 1.1080830093999523 0.034218323169229382 -0.80195680235357247 0.37239041521015165 -0.033426725929201005 -1.651136274215478 -1.3914111436670475 0.79698434284712805 0.056833540040328243 0.58315877586457121 0.52820689541560806 -0.66776566675619209 1.151791272371262 -0.63433115556409392 0.5778463762642273 1.1340904446442182 0.030401129430218072 -1.651136274215478 -0.37525870238701148 0.70303750144679567 1.0126411576529424 -0.015369837600227731 0.74952369652468454 0.54230403395058802 2.1387325262811472 -0.45382092828289139 -0.93835781671512408 -0.44854488004269694 -0.46698834809583006
decision_type=2 2 2 2 2 2 2 2 2 2 2 2 2 2 2 2 2 2 2 2 2 2 2 2 2 2 2 2 2 2
left_child=2 4 3 11 6 17 9 27 26 -2 -3 13 -9 24 25 16 -16 -4 -7 21 23 -8 28 -21 -1 -14 -6 -5 -19 -30
right_child=1 10 5 7 8 18 19 12 -10 -11 -12 -13 14 -15 15 -17 -18 22 -20 20 -22 -23 -24 -25 -26 -27 -28 -29 29 -31
leaf_value=-0.0032082154900466725 0.065558236770014766 -0.0041542838874434494 -0.041030078539193521 -0.049647755754620521 0.051972345817087977 0.028826517348042494 0.011744419532481794 -0.032413003535394107 0.024825878249097617 0.013845401767116787 -0.050156119533811265 -0.064312881475343822 0.0086611270204212751 -0.065451368761009238 -0.0084839277557561456 -0.034656161469539565 0.041398172495938114 -0.043522480502694277 -0.055790060002729215 -0.011426023702107886 0.059375468147168153 0.058764065479355171 -0.024677362042049886 -0.082042734721156599 -0.041737995466893517 0.066474267644793902 0.066099202733622686 0.04551763144487684 -0.045370669355660392 0.036676271863946681
leaf_weight=78.939262509346008 136.65029300749302 86.241697147488594 165.59511165320873 4.6890437155961981 571.59445139765739 7.7079803943634024 137.93007700145245 127.92790016531944 121.88426950573921 51.649318769574165 87.751145333051682 128.91379262506962 38.013668537139893 43.365146592259407 272.60708333551884 86.715916514396667 41.342717111110687 11.140537425875662 610.95683042705059 62.011110663414001 13.724533110857008 31.748023048043251 200.85424882173538 10.948734059929846 44.991186395287514 19.105241969227791 330.73088684678078 57.847307130694389 7.143559828400611 35.385065615177155
leaf_count=362 454 365 867 22 1967 28 524 631 442 195 492 783 155 258 1194 422 143 58 3590 260 45 105 974 66 248 60 1098 199 36 135
internal_value=1.73298e-05 0.0378618 -0.031332 -0.0180143 0.0455869 -0.0434405 0.0278128 -0.00579024 0.0533036 0.0513738 -0.0273547 -0.0447664 -0.0105065 -0.0297043 -0.00438472 -0.00900129 -0.00191517 -0.026807 -0.0547358 0.0105072 -0.00913549 0.0205421 -0.0175533 -0.0220231 -0.0171959 0.0279986 0.0571503 0.038382 0.00910803 0.0228948
internal_weight=3626.11 1642.86 1983.24 944.458 1468.87 1038.78 444.662 648.249 1024.21 188.3 173.993 296.209 585.713 167.296 457.785 400.666 313.95 420.119 618.665 256.362 86.6844 169.678 254.523 72.9598 123.93 57.1189 902.325 62.5364 53.6692 42.5286
internal_count=16178 6013 10165 4477 5156 5688 1649 2826 3507 649 857 1651 2605 868 1974 1759 1337 2070 3618 1000 371 629 1203 326 610 215 3065 221 229 171
is_linear=0
shrinkage=0.05


Tree=13
num_leaves=31
num_cat=0
split_feature=17 2 13 9 23 6 12 26 1 3 0 2 7 23 2 20 5 0 2 0 26 26 0 11 0 9 26 23 16 22
split_gain=1577.62 308.197 118.947 114.392 76.725 74.4489 67.3687 49.0263 36.0909 35.9693 33.4665 33.4089 33.2785 26.7391 25.8965 25.8866 29.3208 24.2578 22.5547 21.7489 21.2583 20.9953 22.4632 19.3939 29.5831 24.1964 17.3885 16.7192 16.1155 15.1715
threshold=-0.14055318490779536 0.61096858879816629 0.034218323169229382 -0.80195680235357247 -0.75450291139313075 -0.033426725929201005 -1.1576468969298079 -1.3914111436670475 0.58427391259844941 -0.38114979654707254 0.25323910478002815 0.66929221251364079 0.86291351047258524 0.68017636684154159 0.67230609873152414 1.1249342347042097 -0.82854496128124178 0.44964466951972804 -0.032634026799977768 2.7672303334481869 -1.3036596467414847 -0.84960717517147166 -0.68950760597053118 0.15809275079085186 0.25323910478002815 -0.66784669816548814 0.65690452851714076 0.2190546817315053 -0.064607378729293397 -0.71070698704183888
decision_type=2 2 2 2 2 2 2 2 2 2 2 2 2 2 2 2 2 2 2 2 2 2 2 2 2 2 2 2 2 2
left_child=2 4 3 10 9 23 12 -5 -3 -2 11 26 -6 14 15 16 19 18 -8 -9 -11 22 -7 24 -4 -26 -1 -20 -25 -30
right_child=1 8 5 7 6 21 17 13 -10 20 -12 -13 -14 -15 -16 -17 -18 -19 27 -21 -22 -23 -24 28 25 -27 -28 -29 29 -31
leaf_value=0.002527792332651897 0.060464433540580204 -0.0069777240050400624 -0.030371578371935989 0.036691456055753455 0.060593511958737717 0.080783793172744089 0.037723361600001476 0.00067985974446327835 -0.052455883066865161 0.060326299956069009 -0.061083822132377667 -0.058193662828027418 -0.021417721959666774 -0.031669497965113216 -0.051450357551688808 0.033215528258833713 -0.013237307203595103 -0.010604581767106257 0.017546117756551207 0.052561884119110239 0.034688023379877996 -0.05535363044977535 -0.032195650453227864 -0.044261899513647535 -0.060288006703858449 0.036493840903506179 -0.046381970200449568 -0.029936768633756546 -0.012047759997468608 -0.047148834949878232
leaf_weight=73.517922461032867 570.04477444291115 125.41823966801167 63.729396030306816 62.159228190779686 140.55392827093601 5.2078983485698691 102.95580396056175 55.300107032060623 66.892011657357216 108.62981766462326 138.35941687226295 55.320272773504257 13.563290774822233 114.60075356066227 27.893020778894424 47.206304058432579 306.73525995016098 82.553581818938255 61.643527418375015 31.824205726385117 316.18449705839157 572.5973482131958 28.34686803817749 145.18226024508476 7.6576159298419944 41.227120652794838 24.139102205634117 26.512094900012016 117.64663447439671 41.694008708000183
leaf_count=327 1973 545 322 221 486 16 359 234 389 369 855 331 57 571 153 168 1372 355 229 107 1134 3461 141 772 42 160 138 117 552 222
internal_value=1.88436e-05 0.0366122 -0.0301271 -0.0172566 0.044643 -0.0419131 0.0269354 -0.00552217 -0.0227966 0.0522571 -0.0432647 -0.0271483 0.053376 -0.0100187 -0.00472778 -0.00177305 -0.00596662 0.0120451 0.0218289 0.019631 0.041244 -0.053101 -0.0146606 -0.0256557 -0.00792697 0.0213333 -0.00956184 0.00326602 -0.0322118 -0.0212325
internal_weight=3575.3 1614.95 1960.34 937.056 1422.64 1023.29 427.782 645.719 192.31 994.859 291.337 152.977 154.117 583.56 468.959 441.066 393.86 273.665 191.111 87.1243 424.814 606.152 33.5548 417.137 112.614 48.8847 97.657 88.1556 304.523 159.341
internal_count=16178 6013 10165 4477 5079 5688 1603 2826 934 3476 1651 796 543 2605 2034 1881 1713 1060 705 341 1503 3618 157 2070 524 202 465 346 1546 774
is_linear=0
shrinkage=0.05


Tree=14
num_leaves=31
num_cat=0
split_feature=17 2 13 9 9 6 26 26 3 1 11 23 2 6 24 26 30 24 4 6 30 26 11 23 30 6 1 7 9 7
split_gain=1446.88 284.376 110.693 106.025 73.1527 71.0832 60.7041 44.4921 36.9527 33.6043 26.0156 24.3871 24.7722 21.6565 20.1068 19.925 19.4128 17.628 28.8036 17.6695 17.0436 16.9818 16.4109 15.8469 15.9549 20.8515 15.8404 15.8022 14.6261 14.3423
threshold=-0.14055318490779536 0.61096858879816629 0.034218323169229382 -0.80195680235357247 0.37239041521015165 -0.033426725929201005 -1.651136274215478 -1.3914111436670475 -0.21043790124959222 0.58427391259844941 0.4461257083242926 0.67756297902671869 0.6587537814256329 -0.017038737723908796 1.1140819156969253 -0.84960717517147166 0.030401129430218072 -0.20570124977722529 0.21980469263252875 0.55626771632459937 1.0126411576529424 -1.3036596467414847 -0.015369837600227731 -0.17883361307528226 0.77628896761026456 -1.6495554961078649 0.58074270079367452 -0.89712339941912822 -0.65309312945841824 -0.93835781671512408
decision_type=2 2 2 2 2 2 2 2 2 2 2 2 2 2 2 2 2 2 2 2 2 2 2 2 2 2 2 2 2 2
left_child=2 4 3 13 6 16 10 29 -6 -3 -2 12 14 -1 17 -7 -4 19 27 26 -15 -10 28 -8 -25 -26 -9 -19 -18 -5
right_child=1 9 5 7 8 15 23 11 21 -11 -12 -13 -14 20 -16 -17 22 18 -20 -21 -22 -23 -24 24 25 -27 -28 -29 -30 -31
leaf_value=-0.062104687639433054 0.060526736253931235 -0.0066333311094955386 -0.038073115209865949 -0.048955979801654059 0.058468101851614232 -0.014015899434726873 0.025574119449667778 0.042513900269777277 0.058601866258023216 -0.050788335279883037 0.017970084044481641 -0.029051332380061901 -0.042352500722643134 -0.03763799492350673 0.032480042516843215 -0.053795638758150216 -0.060247209761343047 -0.025763810679846025 -0.061902455666564438 -0.017787385391927542 0.0099046234141832949 0.032843677335991382 -0.0225118256266892 -0.011240280561601784 -0.070869343922623618 0.036203577394058849 -0.028828998556942678 0.0019482022943154099 0.018590499972050912 0.041971518561970456
leaf_weight=90.319548487663269 125.11206662654877 125.33545570075512 161.94192336499691 4.6932261735200873 599.30114139616489 33.353204667568207 96.912490904331207 49.058810859918594 81.830235034227371 65.665325492620468 50.370008438825607 125.73294985294342 38.866903305053711 174.87112483382225 41.340880960226059 560.04253803193569 6.7287767976522437 69.794648706912994 24.591653123497963 26.90106588602066 21.128645330667496 293.45292963087559 198.53841261565685 103.6585775911808 5.1202489286661139 40.608484163880348 9.2469545751810056 195.6381830573082 46.805834785103798 57.104549691081047
leaf_count=571 442 545 867 22 2134 157 358 170 284 389 188 627 208 985 152 3461 36 318 137 119 95 1060 974 432 33 148 41 833 193 199
internal_value=1.99199e-05 0.035408 -0.028985 -0.0165391 0.043235 -0.0404658 0.0258389 -0.00526896 0.0507637 -0.0218136 0.0483114 -0.0095579 -0.00417635 -0.0418477 -0.000614449 -0.0515597 -0.0245652 -0.00426061 -0.0101347 0.0157335 -0.0325129 0.0384602 -0.0158871 0.00982788 -0.000387234 0.0242146 0.0311993 -0.00533858 0.00868137 0.035066
internal_weight=3524.07 1587.37 1936.7 929.289 1396.37 1007.41 421.782 642.97 974.584 191.001 175.482 581.172 455.439 286.319 416.572 593.396 414.015 375.231 290.024 85.2068 196 375.283 252.073 246.3 149.387 45.7287 58.3058 265.433 53.5346 61.7978
internal_count=16178 6013 10165 4477 5079 5688 1601 2826 3478 934 630 2605 1978 1651 1770 3618 2070 1618 1288 330 1080 1344 1203 971 613 181 211 1151 229 221
is_linear=0
shrinkage=0.05


Tree=15
num_leaves=31
num_cat=0
split_feature=17 3 5 4 12 26 0 1 13 3 12 26 30 6 21 11 24 12 0 16 21 17 20 0 4 30 4 30 6 18
split_gain=1327.49 274.471 102.721 97.3221 87.1825 86.6901 74.1735 46.1258 37.9937 31.795 31.7004 31.8327 29.6115 27.6119 25.2033 24.6914 22.2786 20.5167 23.8205 20.4966 19.0428 18.2564 17.54 17.2015 16.5158 16.0071 15.8029 15.4432 15.3198 21.7617
threshold=-0.14448478161491521 1.0289276356176937 0.18059768631338757 -0.28043990620741538 -1.131740554904078 0.59626108822215051 2.7672303334481869 0.58388006105597501 -0.67793952275477309 -0.38114979654707254 2.6220061136154507 -1.1816995423766159 0.76806732667927557 -1.7863951976220653 -0.4660577699596265 -1.0923609367334044 -0.093686761605623989 0.048398916776539125 1.1959858155305876 0.47926752209169815 0.045870580441534629 -0.12580969725609592 -0.97484962018477372 0.056833540040328243 0.43237089529242778 1.0000000180025095e-35 -0.90199377365882827 0.8960921857360763 -0.33168811126553771 -0.38698869479152037
decision_type=2 2 2 2 2 2 2 2 2 2 2 2 2 2 2 2 2 2 2 2 2 2 2 2 2 2 2 2 2 2
left_child=3 2 4 6 15 10 8 21 -1 -4 11 23 -8 -6 17 -2 -9 -13 -19 -11 -15 27 -10 -5 -16 -24 -27 -3 29 -28
right_child=1 7 9 5 13 -7 12 16 22 19 -12 14 -14 20 24 -17 -18 18 -20 -21 -22 -23 25 -25 -26 26 28 -29 -30 -31
leaf_value=-0.0029447734450499742 5.6871123855206361e-06 -0.044303588501269697 0.057321614314151274 0.036789820064580668 -0.05998847191253609 -0.05563857711317536 -0.027744259382685339 -0.050506469396870368 -0.051364635493872879 0.030054709307369028 0.06046658577511721 -0.047140102550769884 0.058220415842032414 -0.00012852923485148703 0.00745490290368735 0.060987274760815446 0.074423692612487061 -0.013738295511235905 -0.056830261536744212 0.051896256593406721 0.030927380717892534 0.0084784952408009286 -0.036106120979150585 -0.031894475190529313 -0.036426991550197761 -0.033898276751518977 -0.011003841779370064 0.045330062786901243 -0.020684559961168227 0.044943672508694438
leaf_weight=210.97479620575905 19.309814929962158 32.197752073407173 560.00733406841755 27.663278982043266 16.001435220241547 472.71414132416248 12.995607390999792 83.082919672131538 70.110125586390495 252.30418367683887 10.317752733826635 222.42555849254131 43.7138592004776 196.72485084831715 60.071058765053749 118.25186786055565 3.728724092245101 131.78184193372726 42.384519040584564 187.04102544486523 65.894709438085556 131.62585209310055 178.45586410164833 13.595900222659109 33.344440430402756 90.359763026237488 49.105082049965858 5.6485070735216132 104.81855349242687 26.903293758630753
leaf_count=896 76 155 2043 99 101 3046 60 497 384 934 34 1285 142 795 246 427 12 682 259 668 238 527 971 64 175 466 234 20 542 100
internal_value=2.12269e-05 0.0321098 0.0407301 -0.0297535 0.0198584 -0.0399925 -0.0165647 -0.015503 -0.0208398 0.0494222 -0.026336 -0.0280218 0.0385207 0.00377848 -0.0315733 0.0524272 -0.0451405 -0.0370768 -0.024225 0.0393532 0.00766381 -0.000321231 -0.0281036 0.0141567 -0.00820864 -0.0244766 -0.0168238 -0.0309259 -0.00829156 0.00879888
internal_weight=3473.55 1671.82 1415.54 1801.74 416.183 1014.3 787.437 256.284 730.727 999.353 541.584 531.267 56.7095 278.621 490.007 137.562 86.8116 396.592 174.166 439.345 262.62 169.472 519.753 41.2592 93.4155 449.643 271.187 37.8463 180.827 76.0084
internal_count=16178 6493 5282 9685 1637 5890 3795 1211 3593 3645 2844 2810 202 1134 2647 503 509 2226 941 1602 1033 702 2697 163 421 2313 1342 175 876 334
is_linear=0
shrinkage=0.05


Tree=16
num_leaves=31
num_cat=0
split_feature=17 2 13 4 23 6 0 26 2 3 0 30 2 1 21 0 19 21 2 20 2 30 16 2 16 4 26 11 0 21
split_gain=1218.1 243.883 97.9145 70.3552 67.2105 66.731 56.4069 55.7867 45.9002 33.7914 33.6964 32.4566 30.8533 29.0579 26.4879 23.4854 29.7459 20.1581 19.134 19.0031 19.0192 16.9876 16.5541 15.7904 15.4752 14.6269 14.4398 14.2555 13.9795 13.9433
threshold=-0.14055318490779536 0.61096858879816629 0.034218323169229382 0.28552087087986672 -0.93457945825504962 -0.033426725929201005 0.25323910478002815 -1.4277129078272279 -0.032634026799977768 -0.039653541488635251 0.96029913784294774 0.85779772724262149 0.66782165067055044 0.57644222042438054 -0.098800345166547995 2.7672303334481869 -0.3385338611319561 -0.64302967235698461 0.14910433790744823 -1.0263016778014526 0.68161218828432057 0.030401129430218072 0.56604359999774123 -0.24977015825110649 1.146718127920926 0.63285650688728279 -0.92704373832396458 -0.015369837600227731 0.84245579899912781 -0.59956847402196523
decision_type=2 2 2 2 2 2 2 2 2 2 2 2 2 2 2 2 2 2 2 2 2 2 2 2 2 2 2 2 2 2
left_child=2 4 3 8 9 21 7 -6 17 -2 13 19 -3 22 24 16 -13 -1 -7 -10 -21 -4 29 -16 -9 -8 -20 -23 -19 -5
right_child=1 12 5 10 6 18 25 14 11 -11 -12 15 -14 -15 23 -17 -18 28 26 20 -22 27 -24 -25 -26 -27 -28 -29 -30 -31
leaf_value=-0.018424855878591297 0.055244066788947693 0.0045198139628405852 -0.035216643149101758 -0.052555123980242271 0.057521893529471339 -0.023329605973475807 -0.0010638085300009551 -0.030108216414278112 -0.043999030073355309 0.034370861511564869 -0.064097497761262279 -0.02256981686933637 -0.036779188419483917 -0.047293907478841775 0.043212013294401205 0.047636248584093599 0.045006849809062638 0.038585883402522191 -0.013218145298642124 -0.011870666409512147 -0.067266834517346732 0.0086662739201470683 0.020815447716441594 0.011396449252736689 0.038734025501446501 -0.05869849510554867 -0.054021997188560655 -0.020497915106931597 -0.026540786927166007 -0.0048183467800763423
leaf_weight=24.705045253038406 606.85966199636459 75.634412586688995 158.02127501368523 23.729058861732483 149.107839807868 64.828331738710403 86.656097590923309 37.625528946518898 63.971590116620064 284.9339814633131 79.483595803380013 56.564937338232994 112.4733210504055 81.753332883119583 77.904815837740898 31.969392269849777 22.867905005812645 85.386087223887444 22.703688234090805 339.52015148103237 16.235225036740303 53.301012188196182 34.638412401080132 78.091363146901131 10.42518077790737 12.610333129763601 481.82581858336926 195.90592950582504 9.1198298037052137 43.045808225870132
leaf_count=115 2278 306 867 140 548 376 349 165 356 1051 534 272 628 482 277 112 81 306 107 1595 102 229 145 298 38 75 3135 974 42 195
internal_value=2.24114e-05 0.0331496 -0.0268416 -0.01507 0.0406116 -0.0378466 0.0249147 0.0342748 -0.00624933 0.0485749 -0.0369107 -0.0125424 -0.0201737 -0.0251133 0.017287 0.0114491 -0.00311518 0.0217888 -0.0489002 -0.0189102 -0.0143987 -0.0223922 -0.00723258 0.0272852 -0.0151721 -0.00838544 -0.0521858 -0.0142602 0.0323012 -0.021782
internal_weight=3421.9 1532.32 1889.58 912.99 1344.21 976.586 452.421 353.155 650.34 891.794 262.65 531.129 188.108 183.167 204.047 111.402 79.4328 119.211 569.358 419.727 355.755 407.228 101.413 155.996 48.0507 99.2664 504.53 249.207 94.5059 66.7749
internal_count=16178 6013 10165 4477 5079 5688 1750 1326 2981 3329 1496 2518 934 962 778 465 353 463 3618 2053 1697 2070 480 575 203 424 3242 1203 348 335
is_linear=0
shrinkage=0.05


Tree=17
num_leaves=31
num_cat=0
split_feature=17 3 13 9 9 6 12 2 26 0 30 2 3 23 3 20 4 0 23 7 2 20 26 30 30 20 15 26 29 0
split_gain=1117.86 225.86 91.1552 85.5458 66.1182 63.8513 52.9387 42.476 36.4954 31.3044 30.4646 27.4612 27.0658 21.9055 22.1119 28.2051 22.9872 28.8323 20.4004 20.242 18.3801 17.6401 17.4847 17.2177 15.7554 15.5129 15.5055 13.8796 13.8273 13.3237
threshold=-0.14055318490779536 1.0289276356176937 0.034218323169229382 -0.80195680235357247 0.37239041521015165 -0.033426725929201005 -1.131740554904078 0.66782165067055044 -1.5689066693060971 0.52820689541560806 0.80546916096340904 0.66929221251364079 -0.38114979654707254 0.68017636684154159 0.99556121820404864 1.1066822518535007 0.21980469263252875 2.6886681075523069 -0.17883361307528226 -0.90144036007466588 0.14910433790744823 -0.70042521577819505 -0.32466557507268085 0.4963157861356014 0.030401129430218072 -1.0263016778014526 1.2512749645624071 -0.92704373832396458 0.29429719334757609 -0.13957202469937161
decision_type=2 2 2 2 2 2 2 2 2 2 2 2 2 2 2 2 2 2 2 2 2 2 2 2 2 2 2 2 2 2
left_child=2 4 3 9 6 24 10 22 -5 11 -2 21 -6 14 15 16 17 19 -8 29 -7 -1 -3 -14 -4 -21 -23 -22 -18 -10
right_child=1 7 5 8 12 20 18 -9 13 -11 -12 -13 23 -15 -16 -17 28 -19 -20 25 27 26 -24 -25 -26 -27 -28 -29 -30 -31
leaf_value=-0.037565386259956986 -0.00023533983481464731 0.042248958209244375 -0.033875757178711434 0.04086629829525612 0.055678630538172735 -0.02237720231937881 0.029314495742722532 -0.035384441781312191 -0.00032216079833210804 -0.057808633597407282 0.061317624470831479 -0.053393731290797677 0.029966439175531975 -0.027484871193336081 -0.030227593097341694 0.043520975369548333 -0.053104881692483612 0.038609168101108378 0.00011254315697288639 -0.041837865072168842 -0.012587162409256551 0.013827543473975523 -0.002869029082815324 0.052192857863203462 -0.013602874232929885 0.0084025039459067492 -0.060761167063650992 -0.052658816021494415 0.0083432426289210479 -0.041512105449753395
leaf_weight=35.726363897323608 24.884203180670738 27.633445978164673 156.11169750988483 41.66023001074791 499.80864526331425 64.223856583237648 92.377532616257668 111.09691096842289 32.680356562137604 114.32717630267143 104.59926857054234 51.580630227923393 242.45870082080364 111.78283539414406 64.155970007181168 36.134805709123611 32.909498527646065 45.970998123288155 169.63025122880936 16.722119301557541 22.651087880134583 62.779613062739372 96.325572669506073 136.00923506915569 248.22732701897621 189.29046677052975 7.8373442888259879 469.8890472650528 12.683403640985487 49.17464105784893
leaf_count=202 99 97 867 148 1931 376 349 628 139 783 402 333 919 573 327 124 182 167 691 84 107 289 394 503 1203 793 44 3135 52 237
internal_value=2.34871e-05 0.0320888 -0.0258282 -0.0144439 0.0404231 -0.0365529 0.0233339 -0.012933 -0.00436601 -0.0378818 0.0494883 -0.0234561 0.0480407 -0.00755176 -0.00290703 0.00131078 -0.00270907 0.00183899 0.0104084 -0.00403302 -0.0475355 -0.00893515 0.00718886 0.0379539 -0.0214301 0.00432447 0.0055494 -0.050816 -0.0360107 -0.0250671
internal_weight=3371.34 1504.82 1866.52 905.416 1269.77 961.103 391.491 235.056 633.165 272.251 129.483 157.924 878.277 591.505 479.722 415.566 379.431 333.839 262.008 287.868 556.764 106.343 123.959 378.468 404.339 206.013 70.617 492.54 45.5929 81.855
internal_count=16178 6013 10165 4477 4894 5688 1541 1119 2826 1651 501 868 3353 2678 2105 1778 1654 1420 1040 1253 3618 535 491 1422 2070 877 333 3242 234 376
is_linear=0
shrinkage=0.05


Tree=18
num_leaves=31
num_cat=0
split_feature=17 2 21 4 26 12 0 30 26 13 2 2 24 26 0 30 2 2 4 18 6 11 12 7 0 0 26 21 10 0
split_gain=1026.77 219.594 86.1899 84.6179 80.2189 70.6258 59.4389 37.615 34.3848 31.4029 28.4498 27.3968 48.8153 34.3193 27.7606 25.7532 22.3478 22.1247 21.799 17.4795 32.9548 17.7195 15.6333 21.781 15.0083 14.873 14.6551 15.0513 14.405 14.6892
threshold=-0.14448478161491521 0.61096858879816629 0.60710239280568867 -0.28043990620741538 0.59626108822215051 -1.2023071643531584 2.7672303334481869 0.80546916096340904 -0.66394765232708519 -0.67793952275477309 0.68212754017231292 0.67230609873152414 -0.20570124977722529 -1.1816995423766159 -0.8073509448143511 0.76806732667927557 -0.90317301200940558 -0.76007624017567665 0.04402090690369366 -0.45881035850213542 -0.43165483931782622 0.14154894020432446 0.082413146031518905 -0.71599535562554351 0.056833540040328243 -0.13957202469937161 -1.651136274215478 0.31150632347496204 -0.12870405559073489 1.5887969450099872
decision_type=2 2 2 2 2 2 2 2 2 2 2 2 2 2 2 2 2 2 2 2 2 2 2 2 2 2 2 2 2 2
left_child=3 2 5 6 11 7 9 -2 -4 -1 26 12 14 24 -5 -8 -10 -7 22 25 21 -21 -15 -24 -14 -11 -3 -28 -19 -30
right_child=1 10 8 4 -6 17 15 -9 16 19 -12 -13 13 18 -16 -17 -18 28 -20 20 -22 -23 23 -25 -26 -27 27 -29 29 -31
leaf_value=-0.0018151468888115642 -0.0040021745951583807 0.053969756562600939 0.055341069218085626 -0.006168538414295514 -0.05215319028078215 0.036346767954723677 -0.025909166043231853 0.059733884789861837 0.047816952192339654 -0.010476354713514095 -0.051506245246258353 -0.049215072083368332 0.03906545623662977 -0.03356408073241738 0.05046526889755687 0.054873292200453727 0.026171154523467622 0.010183902696426368 -0.04362896394657878 0.060441587428990841 -0.023757243899836886 -0.0040973089149720669 -0.039700592037458675 0.024410412155437936 -0.026915516863099145 -0.038771424960978795 -0.033366249920559837 0.00026136018318184234 -0.0047898311526790756 -0.050557106992262617
leaf_weight=209.97688333690166 28.721932232379913 8.8172595351934415 433.51216977834702 62.5576311647892 441.02267025411129 49.6154445707798 12.892545133829115 119.30412511527538 217.14108094573021 58.386039525270462 51.913554355502129 84.76841813325882 26.030154451727867 63.050636306405067 33.080076545476913 42.025447726249695 264.47724241018295 153.1944350451231 181.6225508749485 19.403795048594475 177.1192189604044 23.534805431962013 20.221229836344719 38.41739647090435 12.884603455662726 227.03899145126343 53.549062818288803 87.890372037887573 97.750476747751236 21.36341780424118
leaf_count=896 116 30 1682 278 3046 180 60 469 865 297 339 534 92 361 122 142 1025 599 1106 68 975 112 113 177 61 1245 271 384 403 130
internal_value=2.45466e-05 0.0290822 0.0361874 -0.0265734 -0.036449 0.0187823 -0.0142202 0.047367 0.0451255 -0.018068 -0.0195962 -0.0231971 -0.0181601 -0.0269855 0.0134205 0.0359088 0.0359303 0.00563859 -0.032657 -0.0248194 -0.0142303 0.0250676 -0.0162812 0.00230206 0.0172193 -0.0329834 -0.0085713 -0.0124701 4.34667e-05 -0.0129983
internal_weight=3321.28 1587.25 1385.08 1734.03 963.655 469.95 770.378 148.026 915.13 715.46 202.17 522.633 437.864 342.227 95.6377 54.918 481.618 321.924 303.312 505.483 220.058 42.9386 121.689 58.6386 38.9148 285.425 150.257 141.439 272.308 119.114
internal_count=16178 6493 5469 9685 5890 1897 3795 585 3572 3593 1024 2844 2310 1910 400 202 1890 1312 1757 2697 1155 180 651 290 153 1542 685 655 1132 533
is_linear=0
shrinkage=0.05


Tree=19
num_leaves=31
num_cat=0
split_feature=17 3 13 9 6 5 30 1 0 3 6 2 30 2 4 0 5 0 30 2 0 11 18 0 20 8 9 11 15 16
split_gain=942.803 192.884 84.8273 73.5845 59.5026 56.2726 44.3001 37.9653 31.3317 30.945 30.472 29.7469 27.2723 29.7332 23.4922 22.9589 25.4003 21.0535 19.6661 18.8546 15.6195 15.2626 14.9842 32.694 26.1564 18.7782 19.7038 16.021 16.3531 16.2054
threshold=-0.1395702857310154 1.0289276356176937 0.034218323169229382 -0.80195680235357247 -0.033426725929201005 0.18059768631338757 0.77628896761026456 0.58427391259844941 0.25323910478002815 -0.38114979654707254 -1.6495554961078649 0.66929221251364079 0.85779772724262149 -0.24977015825110649 0.21065103489651676 -0.53238315417877125 -0.84687922381275549 -0.8073509448143511 0.45534578575882206 0.14910433790744823 -0.72878871891847108 -0.18079734129400227 -0.46698834809583006 2.7672303334481869 -0.59808517948503492 0.74463426145605138 -0.71655060454978614 -0.63375223891071497 -0.65150561949920516 0.15336606499236718
decision_type=2 2 2 2 2 2 2 2 2 2 2 2 2 2 2 2 2 2 2 2 2 2 2 2 2 2 2 2 2 2
left_child=2 5 3 8 22 6 -2 20 11 -7 -8 -1 13 -5 -15 17 -17 -14 -11 -6 -3 -12 23 -4 25 26 -24 -28 29 -29
right_child=1 7 4 12 19 9 10 -9 -10 18 21 -13 15 14 -16 16 -18 -19 -20 -21 -22 -23 24 -25 -26 -27 27 28 -30 -31
leaf_value=-0.0028606474721404916 0.0025842491810199072 -0.0047617683112970268 -0.031865190737175059 0.020464282451912966 -0.019437969242542198 0.05299351578141212 -0.065920535200869532 -0.046002646111886161 -0.053619115064867745 0.02591233878433782 0.057631727101854706 -0.050778515617356912 -0.037271816322081396 -0.0088009042466491317 -0.040143327665918722 0.043748816893476393 -0.01557005949676339 0.056206680317648083 0.048737254363365699 -0.048560536506511986 0.044823351559208191 0.018243002621099621 -0.044456530281782335 0.06069210566913235 -0.055842310554306496 -0.036791952965839689 -0.04894832458033261 -0.037586231784957597 0.043667341390978887 0.024406885008249349
leaf_weight=95.326296702027321 167.23821868002415 151.15657694637775 221.28865930438042 72.9890116751194 63.00478595495224 500.33155877888203 6.287745237350463 59.479383766651154 121.21405859291553 254.03075036406517 90.303431928157806 49.05518801510334 7.0053527951240531 356.13600386679173 71.847045406699181 24.954993605613708 65.188054576516151 42.971044212579727 150.15240563452244 471.44973741471767 17.746579632163048 33.798557057976723 15.082912757992743 9.9707290232181531 24.6467015594244 28.034328281879425 8.4739558249711973 16.729447275400162 46.664322033524513 28.50154347717762
leaf_count=471 671 652 1205 282 377 2038 42 384 861 990 367 332 33 1634 392 93 303 154 584 3247 66 127 88 32 147 154 48 91 189 124
internal_value=2.52821e-05 0.0304734 -0.02364 -0.0127463 -0.0342169 0.0384759 0.0196172 -0.0116494 -0.0348765 0.0446813 0.0414637 -0.0191413 -0.00357812 -0.0090321 -0.0140625 0.0159216 0.000851641 0.0431035 0.0343917 -0.0451274 0.000448118 0.0469044 -0.0196168 -0.0278746 -0.00825859 -8.51209e-05 0.00882811 0.0168354 0.0229015 0.00147768
internal_weight=3271.06 1430.53 1840.53 906.687 933.847 1202.14 297.628 228.383 265.596 904.515 130.39 144.381 641.092 500.972 427.983 140.119 90.143 49.9764 404.183 534.455 168.903 124.102 399.393 231.259 168.133 143.487 115.452 100.369 91.8953 45.231
internal_count=16178 5921 10257 4555 5702 4819 1207 1102 1664 3612 536 803 2891 2308 2026 583 396 187 1574 3624 718 494 2078 1237 841 694 540 452 404 215
is_linear=0
shrinkage=0.05


Tree=20
num_leaves=31
num_cat=0
split_feature=23 26 3 10 0 2 0 26 30 1 30 26 2 2 0 13 2 24 4 3 3 15 7 11 18 12 23 6 0 11
split_gain=826.22 296.664 109.935 80.3441 76.2242 67.6302 54.6353 53.0689 41.2619 28.8916 24.9973 23.9834 23.9717 21.8983 30.3626 27.5088 21.1725 18.3263 17.2694 16.7871 16.3805 16.0097 15.9099 14.8495 14.8207 14.412 19.3822 14.4105 14.1256 18.9601
threshold=-0.35910439822073531 -1.4277129078272279 0.79698434284712805 -0.42966078827111343 -0.06100979880349168 -1.230800016719914 2.7279492205002467 0.59626108822215051 1.1516114794472019 0.58315877586457121 0.4963157861356014 -0.6068996858417991 -0.24977015825110649 0.66782165067055044 1.5495158320620475 0.034218323169229382 0.010668394429584132 -0.50611592394601412 -0.081184725183999107 -0.3496826118664334 -0.6899378516069955 -0.232165758929575 0.41991111939243081 -2.3019491024158185 -0.3362517797612492 0.23428328801442169 0.67625628511930735 0.11406516791843783 0.056833540040328243 0.098496842449009095
decision_type=2 2 2 2 2 2 2 2 2 2 2 2 2 2 2 2 2 2 2 2 2 2 2 2 2 2 2 2 2 2
left_child=2 4 11 6 -2 19 12 8 13 -4 -8 -1 -3 14 15 23 -6 20 -9 -5 -13 -18 -10 -7 -23 28 -27 -17 -14 -30
right_child=1 3 9 5 16 7 10 18 22 -11 -12 17 25 -15 -16 27 21 -19 -20 -21 -22 24 -24 -25 -26 26 -28 -29 29 -31
leaf_value=0.054351272171924918 0.053405278458876243 0.019897053762245827 0.013888248062190073 0.061365430956548367 0.019794415594881123 0.073139508211963564 -0.027812923837320348 -0.031572149858208574 -0.010964825194177207 -0.034419833218086046 0.049013346236158654 0.050779658732159283 -0.014936574427057855 -0.046560645792292979 -0.055944887920457667 -0.012627842750126718 -0.058945361830904555 -0.028973374995848414 -0.0528753419640315 -0.022487231241564962 0.030361174379594333 0.039994825620308615 0.044461405521340008 -0.010711304541847155 -0.036527827028380581 0.0028064040751956138 -0.034091213070442432 -0.043944580912656059 0.0011763942767114193 -0.040400395876673073
leaf_weight=393.06114286184311 164.1535529345274 45.074495777487755 185.83742496371269 23.557308927178386 51.272357493638992 5.390224114060401 13.378376036882399 131.7661372423172 25.058549493551254 37.135601252317429 50.763783916831017 167.27844448387623 244.20779131352901 135.3578438013792 64.473410427570343 52.444108337163925 21.128427103161812 10.22941470146179 342.17480650544167 7.9942671209573737 237.94415578246117 12.100847840309145 26.787949122488499 258.31440016627312 13.262081250548361 142.86936315894127 47.399712055921555 122.62580813467503 33.241651594638824 156.59148655831814
leaf_count=1618 649 175 734 78 192 17 63 842 130 213 178 698 1223 883 433 286 105 49 2520 36 949 43 100 1209 60 651 254 786 153 851
internal_value=2.58962e-05 -0.0173428 0.0369257 -0.0241209 0.0325892 -0.0321115 -0.011093 -0.0340688 -0.025225 0.00584266 0.0329894 0.0454978 -0.015317 -0.0287078 -0.0239059 -0.0191981 -0.00236264 0.0371216 -0.0469526 0.0401196 0.0387901 -0.0267982 0.0176727 -0.00899736 -1.8283e-05 -0.0178595 -0.00638551 -0.0345633 -0.0228893 -0.0331199
internal_weight=3222.87 2191.39 1031.49 1929.47 261.917 1195.94 733.527 1164.39 690.452 222.973 64.1422 808.513 669.385 638.606 503.248 438.775 97.7637 415.452 473.941 31.5516 405.223 46.4914 51.8465 263.705 25.3629 624.31 190.269 175.07 434.041 189.833
internal_count=16178 11917 4261 10868 1049 7320 3548 7206 3844 947 241 3314 3307 3614 2731 2298 400 1696 3362 114 1647 208 230 1226 103 3132 905 1072 2227 1004
is_linear=0
shrinkage=0.05


Tree=21
num_leaves=31
num_cat=0
split_feature=19 3 13 9 9 6 30 2 0 0 26 23 2 0 19 20 26 9 18 0 8 11 15 3 4 7 0 0 20 3
split_gain=793.724 189.27 69.4699 60.2797 55.7607 50.3474 45.1062 38.8232 33.268 27.3679 23.8513 23.5386 22.7074 22.302 19.4658 18.5876 19.6445 17.0206 23.1178 29.9817 23.313 18.486 22.8953 16.6432 15.5432 18.2892 15.3854 19.511 15.226 14.9233
threshold=-0.27188322942481025 0.9674686116916329 1.0000000180025095e-35 -0.80716855996270465 0.37239041521015165 -0.033426725929201005 0.79029582814026467 0.6747987368954752 0.52820689541560806 -0.53238315417877125 -0.32466557507268085 0.10102843744585435 0.67230609873152414 -0.45382092828289139 -0.40766836731266015 1.1340904446442182 -1.5689066693060971 -0.76984028313875963 -0.40429042787750119 2.7672303334481869 1.0000000180025095e-35 -0.63375223891071497 -0.6449803315898488 1.1523293035025961 -0.032675932049369201 0.47503211456067274 2.6886681075523069 0.64605023425942798 -0.94188122069781433 -0.40731514997398482
decision_type=2 2 2 2 2 2 2 2 2 2 2 2 2 2 2 2 2 2 2 2 2 2 2 2 2 2 2 2 2 2
left_child=2 4 3 8 6 17 11 10 23 -8 -3 29 15 -6 -7 16 -5 -4 19 -19 21 -20 -23 28 26 -26 27 -18 -1 -2
right_child=1 7 5 12 13 14 9 -9 -10 -11 -12 -13 -14 -15 -16 -17 24 18 20 -21 -22 22 -24 -25 25 -27 -28 -29 -30 -31
leaf_value=-0.059704399196495297 0.049106478113664538 0.036029398330202349 -0.056154975291917542 0.039812852427082268 0.03837265202279147 -0.049018383776928236 0.055853274058363836 -0.035434676883266417 -0.055660784493363036 0.0084519508130600357 -0.0067300040966368465 -0.0068393546428222934 -0.047250943980820921 0.056362149748831372 -0.030387160070023195 0.028850915052431803 0.0013944317966787486 -0.026811806906105091 -0.048740728527252156 0.054651188505832227 -0.037037295667899588 -0.0041023522670546658 0.048321211831045707 -0.064981036282223459 -0.037087549190889121 0.00046292658276075649 0.02811925703259225 -0.036762853971869652 0.00022585661767101663 0.010140827376680704
leaf_weight=12.174201488494871 39.945459082722664 43.959055006504059 27.620209410786629 25.18671277910471 501.05014806985855 318.00028762966394 108.23450866341591 96.14625496417284 95.757637500762939 42.371894225478172 126.35417030751705 129.18194541335106 26.860293261706829 262.56733426451683 250.73171106725931 50.098123654723167 239.00586053729057 271.5904662758112 10.239628240466116 11.784812301397322 28.43754518032074 41.121750175952911 42.201656520366669 14.55874504894018 71.605076752603054 59.265221640467644 43.201433926820755 38.963055029511452 81.869901850819588 63.847021147608757
leaf_count=80 147 167 181 90 2089 2367 459 601 737 174 534 539 164 1122 1587 188 1036 1485 59 39 160 202 166 109 407 259 170 189 421 250
internal_value=2.69427e-05 0.0279282 -0.0223803 -0.0109656 0.0367455 -0.0310239 0.0211921 -0.0100333 -0.0341766 0.0425173 0.0043065 0.00740648 -0.00240639 0.0445583 -0.0408046 -0.000122151 -0.00316367 -0.018177 -0.0155894 -0.023424 0.00260821 0.0146581 0.0224491 -0.0152335 -0.00555823 -0.0200826 0.000360172 -0.0039541 -0.00753224 0.0251371
internal_weight=3173.93 1413.66 1760.27 758.546 1147.2 1001.73 383.581 266.459 204.36 150.606 170.313 232.974 554.186 763.617 568.732 527.325 477.227 432.996 405.376 283.375 122.001 93.563 83.3234 108.603 452.041 130.87 321.17 277.969 94.0441 103.792
internal_count=16178 6082 10096 3850 4780 6246 1569 1302 1347 633 701 936 2503 3211 3954 2339 2151 2292 2111 1524 587 427 368 610 2061 666 1395 1225 501 397
is_linear=0
shrinkage=0.05


Tree=22
num_leaves=31
num_cat=0
split_feature=17 3 9 10 26 12 0 2 26 21 0 26 0 2 30 19 24 30 20 12 15 2 20 18 0 3 30 6 30 3
split_gain=731.605 166.294 73.9007 66.2665 57.1695 50.8759 39.7072 36.401 24.7329 26.8101 23.831 23.4491 20.9661 24.64 20.853 18.2745 18.2219 17.4681 17.9035 21.4841 22.0391 16.6531 19.1931 16.2512 23.0818 18.8519 16.0749 15.8003 15.3356 15.1264
threshold=-0.14448478161491521 0.9674686116916329 0.37239041521015165 -0.42966078827111343 0.59626108822215051 -1.2023071643531584 2.7672303334481869 0.66782165067055044 -1.5689066693060971 -0.48498895113873236 -0.76806983186641109 -1.0399694443664937 1.7459213968017473 -0.23339000774642041 0.87820173440618843 0.33480311074178776 0.64676959254640654 -0.28445261548510353 -0.97484962018477372 0.048398916776539125 -0.43557991992686568 -0.24977015825110649 -0.51044141415169031 -0.45881035850213542 -0.13957202469937161 0.92823967099184879 0.4963157861356014 -0.056825131311203446 -1.2446059433877072 -0.7100164706999873
decision_type=2 2 2 2 2 2 2 2 2 2 2 2 2 2 2 2 2 2 2 2 2 2 2 2 2 2 2 2 2 2
left_child=3 2 5 6 8 11 21 14 -5 17 29 -2 13 -7 -3 16 -14 -10 -19 -20 -21 -1 23 24 -23 -25 -8 -9 -11 -4
right_child=1 7 10 4 -6 12 26 27 9 28 -12 -13 15 -15 -16 -17 -18 18 19 20 -22 22 -24 25 -26 -27 -28 -29 -30 -31
leaf_value=0.021883382369818731 0.056643654012701931 -0.0012228554683248352 0.048513709094027802 0.03548683695963821 -0.044783124494371607 0.030734909302971292 -0.022391043326233134 0.012831947370478684 -0.044189422067186471 -0.049278922601734193 0.051823753426691946 0.002280754928922516 -0.070645345504329979 7.3447461871376679e-05 0.05114956857919687 0.065885508072355173 -0.0038981394764524436 -0.054846177148832033 -0.02908520461032138 -0.021324262650584871 0.023499331644979735 0.0012774035189815347 -0.049856225832257524 0.0035910405454932224 -0.028009515248614308 -0.041804079016184374 0.044166281191286037 -0.039096747825123013 0.0081252648574024391 0.02716611064637214
leaf_weight=30.032433554530144 94.085799813270569 145.09213928878307 123.14613518118858 19.089894011616707 432.7956573292613 108.17415657639503 11.500855937600134 17.30280476808548 119.59894920885563 13.397696256637571 383.58648432791233 25.135750323534012 19.307829171419144 166.18392844498158 21.871604740619659 5.0068209171295157 21.736268579959869 35.719448141753674 155.91816267371178 58.282177835702896 51.793525651097298 91.068857178092003 39.705909043550491 172.21103589236736 257.51029706001282 26.372971400618553 42.953262627124786 95.484727472066879 88.415310807526112 254.41954502463341
leaf_count=116 420 596 548 68 3247 405 54 87 788 78 1679 100 134 684 82 18 90 236 952 346 247 422 242 808 1373 151 157 596 400 1054
internal_value=2.73016e-05 0.0255311 0.0336193 -0.0229076 -0.0312315 0.0172981 -0.0108188 -0.00918608 -0.0204146 -0.0224545 0.0430463 0.0451822 0.00692261 0.0121627 0.00563773 -0.0242962 -0.0352971 -0.0280189 -0.0216089 -0.0171456 -0.000233578 -0.0144316 -0.01629 -0.0138542 -0.0203581 -0.00243766 0.0301092 -0.0311303 0.000571379 0.0341288
internal_weight=3126.9 1480.53 1200.78 1646.37 975.011 439.631 671.356 279.751 542.215 523.125 761.152 119.222 320.409 274.358 166.964 46.0509 41.0441 421.312 301.713 265.994 110.076 616.902 586.869 547.163 348.579 198.584 54.4541 112.788 101.813 377.566
internal_count=16178 6493 5132 9685 6362 1851 3323 1361 3115 3047 3281 520 1331 1089 678 242 224 2569 1781 1545 593 3112 2996 2754 1795 959 211 683 478 1602
is_linear=0
shrinkage=0.05


Tree=23
num_leaves=31
num_cat=0
split_feature=17 3 10 9 19 0 30 0 12 1 2 2 21 0 11 20 0 3 0 5 23 30 21 21 20 24 0 3 0 19
split_gain=672.174 143.685 66.9792 48.5849 45.5153 51.1269 44.2737 36.2384 33.6036 33.4059 25.6928 25.5912 24.7289 23.6517 18.8051 18.4667 18.3767 17.4211 16.7301 16.338 15.5542 15.5483 15.4892 15.1063 12.7511 16.4109 20.3541 18.9685 12.0898 15.8543
threshold=-0.1395702857310154 0.9674686116916329 -0.42966078827111343 0.37239041521015165 -0.40766836731266015 1.1567047025826478 0.87820173440618843 2.7672303334481869 -1.2023071643531584 0.58427391259844941 0.59401779416097555 -0.24977015825110649 -0.62115863415995631 -0.45382092828289139 -0.99218811773736115 0.23362907216124415 -0.53238315417877125 -0.62523192603987143 -0.8073509448143511 -0.23319452690676903 0.68621541165687583 0.4963157861356014 -0.47873473302417113 0.25220360261024594 -0.51044141415169031 0.86216418713461129 -0.13957202469937161 0.99556121820404864 1.7459213968017473 0.33480311074178776
decision_type=2 2 2 2 2 2 2 2 2 2 2 2 2 2 2 2 2 2 2 2 2 2 2 2 2 2 2 2 2 2
left_child=2 3 7 8 -4 6 10 11 14 15 12 -1 20 17 -2 -3 18 -5 -8 -7 -6 -9 -10 -17 25 27 -27 -13 -24 -30
right_child=1 9 4 13 5 19 16 21 22 -11 -12 24 -14 -15 -16 23 -18 -19 -20 -21 -22 -23 28 -25 -26 26 -28 -29 29 -31
leaf_value=0.025794846821204944 -0.00010474000767926623 0.056824746232567593 -0.042728382551184232 0.047625130967266782 -0.033932728459284342 -0.053047598285387236 -0.018190098039808623 -0.021941472499490518 -0.032018579885938266 -0.040757223072895615 -0.037886708250295491 0.00099243958639699944 0.00089567232361173466 0.054549775721627149 0.055569841804884702 -0.026863198802231082 -0.0082557621972387998 0.028279436228464922 0.051326535508947141 0.04881425550733403 0.012366408680404131 0.042915848964746539 0.017481311836550759 0.0065660336477470077 -0.04013623899641821 0.0018500009948307671 -0.02778007391835223 -0.045527956779841672 -0.034834065673352087 0.064351071628946821
leaf_weight=42.225431025028229 19.020433157682419 14.637551635503767 362.54118305444717 187.66043741255999 126.6729813888669 120.28455049544573 10.934528082609175 11.603634878993033 21.010856091976166 56.631001219153404 146.02606222778559 239.17604361474514 163.9942502528429 248.11059868335724 74.865305557847023 44.584196984767914 39.704715400934219 306.33532038331032 41.513336502015591 4.0697305500507346 21.172164835035801 45.377584561705589 189.34718911349773 139.64159935712814 44.777724236249924 77.580852851271629 229.16970767080784 24.122165128588676 23.254267215728763 4.8732982724905005
leaf_count=160 76 58 2725 861 804 920 56 55 96 389 955 1147 762 1132 353 217 220 1287 159 19 124 168 739 574 268 356 1215 144 121 18
internal_value=2.81823e-05 0.0268252 -0.0203261 0.0348391 -0.0284411 -0.0207603 -0.0142142 -0.00854146 0.0189521 -0.00687737 -0.0205783 -0.0118586 -0.0124733 0.0419545 0.0442907 0.00277071 0.0174064 0.0356285 0.0368334 -0.049714 -0.0273025 0.0297083 0.0089769 -0.00152412 -0.0144446 -0.0124265 -0.0202863 -0.00326954 0.0129376 -0.0176495
internal_weight=3080.92 1329.97 1750.95 1074.48 1036.91 674.372 550.018 714.033 332.371 255.494 457.865 657.052 311.839 742.106 93.8857 198.863 92.1526 493.996 52.4479 124.354 147.845 56.9812 238.486 184.226 614.826 570.049 306.751 263.298 217.475 28.1276
internal_count=16178 5921 10257 4683 6744 4019 3080 3513 1403 1238 2645 3290 1690 3280 429 849 435 2148 215 939 928 223 974 791 3130 2862 1571 1291 878 139
is_linear=0
shrinkage=0.05


Tree=24
num_leaves=31
num_cat=0
split_feature=17 3 9 10 26 12 0 2 13 0 2 0 11 12 23 30 3 6 26 20 20 18 0 3 12 30 29 5 20 11
split_gain=616.896 143.053 66.5654 57.7432 53.17 45.3225 33.0918 31.6712 28.8278 27.7982 34.1244 23.4409 22.0228 20.1716 18.9102 18.4902 17.0347 14.4631 14.3409 14.8832 14.2413 17.8546 19.4961 18.4575 14.7418 13.8516 13.2412 12.7253 12.3254 13.115
threshold=-0.14448478161491521 0.9674686116916329 0.37239041521015165 -0.42966078827111343 0.59626108822215051 -1.2023071643531584 2.7672303334481869 0.66782165067055044 1.2211480663759007 1.0781424766867678 0.66929221251364079 -0.45382092828289139 -0.99218811773736115 1.2982825388316603 -0.17883361307528226 0.87820173440618843 -0.62523192603987143 -0.056825131311203446 -1.5689066693060971 -0.97484962018477372 -0.51044141415169031 -0.45881035850213542 -0.13957202469937161 0.92823967099184879 0.13771483225419792 0.76806732667927557 -0.88642238113460559 -0.15300092013345648 -0.9630543266316941 -0.4952347747984796
decision_type=2 2 2 2 2 2 2 2 2 2 2 2 2 2 2 2 2 2 2 2 2 2 2 2 2 2 2 2 2 2
left_child=3 2 5 6 8 12 20 15 9 10 13 16 -2 18 -7 -3 -4 -9 -5 -20 21 22 -1 28 -24 26 -8 -11 -23 -30
right_child=1 7 11 4 -6 14 25 17 -10 27 -12 -13 -14 -15 -16 -17 -18 -19 19 -21 -22 23 24 -25 -26 -27 -28 -29 29 -31
leaf_value=0.00099833040817093452 0.00051731214495911732 -0.0010118514502746856 0.046652040508488112 0.041398577284763614 -0.042654556171710052 0.026068878571811723 -0.04847080104151838 0.01279456970234377 -0.043056020818311384 -0.051758772178088233 -0.039938824622673112 0.053692372435527241 0.054661548295713652 0.041041001537783339 -0.0011881531741915168 0.04905497660632531 0.027293048625884143 -0.03705689298131077 -0.0492552557191345 -0.0043110973200013751 -0.040940588205328698 -0.031173747162149015 -0.035196410598372509 -0.039177633304098604 -0.011103453153572159 0.043360548754815473 0.055190293064442057 0.047072413761492904 -0.035491132726795362 0.015009657484155007
leaf_weight=99.188517317175865 23.789207264780998 144.82544529438019 182.13712275773287 15.755839616060255 412.40115955471992 88.10650347173214 9.4353604018688184 17.257289111614227 98.953688509762287 53.338987894356251 69.026210457086563 239.6833555996418 89.200280547142029 26.079969644546509 229.07683280855417 21.131543651223183 302.13507625460625 92.724689185619354 19.926249876618385 243.67936638742685 43.074711330235004 19.761037945747375 150.76573912799358 25.65479975938797 109.67945252358913 38.883763030171394 4.5739724189043036 3.4688418209552756 14.073069497942923 148.68041208386421
leaf_count=455 95 596 861 55 3247 354 47 87 695 397 478 1132 425 105 977 82 1288 596 125 1245 261 103 842 151 559 147 17 15 77 664
internal_value=2.91226e-05 0.023915 0.0316474 -0.0212348 -0.0291896 0.0160698 -0.00993798 -0.00842659 -0.0187169 -0.0131324 -0.00818817 0.0409036 0.0432618 -0.0010129 0.00638325 0.00536323 0.0345741 -0.0292347 -0.00493887 -0.00770848 -0.013223 -0.0111203 -0.017866 0.000533474 -0.0250503 0.0280022 -0.014626 -0.0457239 0.00611539 0.0106429
internal_weight=3036.47 1430.07 1154.13 1606.4 942.63 430.173 663.771 275.939 530.229 431.275 374.468 723.956 112.989 305.441 317.183 165.957 484.272 109.982 279.361 263.606 610.878 567.803 359.634 208.169 260.445 52.8931 14.0093 56.8078 182.515 162.753
internal_count=16178 6493 5132 9685 6362 1851 3323 1361 3115 2420 2008 3281 520 1530 1331 678 2149 683 1425 1370 3112 2851 1856 995 1401 211 64 412 844 741
is_linear=0
shrinkage=0.05


Tree=25
num_leaves=31
num_cat=0
split_feature=19 3 13 6 9 30 23 1 0 3 3 23 26 3 30 20 26 20 4 22 10 21 13 5 1 0 0 7 30 3
split_gain=567.098 140.289 56.3834 49.7699 49.6269 49.4038 58.662 35.9325 29.5552 27.0051 20.4169 19.0785 17.5229 17.4952 16.1676 15.6501 14.3214 13.4582 14.3237 13.6644 13.4427 13.2877 13.4753 13.1506 12.8296 12.7011 23.28 16.2103 12.5602 11.6642
threshold=-0.27188322942481025 0.9674686116916329 0.034218323169229382 0.12772182475618191 -0.80716855996270465 0.66268539401473958 0.10102843744585435 0.58427391259844941 0.52820689541560806 -0.67190830025664872 1.1523293035025961 0.67756297902671869 0.24774588494173896 1.1437898819987076 0.87820173440618843 -0.67455816723480555 -1.651136274215478 1.1340904446442182 0.22426034273213633 0.87598501293716613 -0.13590215951897869 0.25220360261024594 -0.67793952275477309 -0.8146357596174052 0.58401774682841723 2.6886681075523069 0.64605023425942798 -0.9338849067419811 -0.2047267275087126 0.67920991275472209
decision_type=2 2 2 2 2 2 2 2 2 2 2 2 2 2 2 2 2 2 2 2 2 2 2 2 2 2 2 2 2 2
left_child=2 5 4 28 8 6 9 14 10 -2 15 13 -7 17 21 -1 -5 18 25 -20 -17 22 -3 -22 -11 26 27 -6 -4 -18
right_child=1 7 3 16 11 12 -8 -9 -10 24 -12 -13 -14 -15 -16 20 29 -19 19 -21 23 -23 -24 -25 -26 -27 -28 -29 -30 -31
leaf_value=-0.033284042077604513 0.045760482995282195 0.0040322941600691772 -0.031842184469686306 0.039233163627122231 -0.018433019177328393 0.049920511239087639 -0.0072121052478004728 -0.041428921149761794 -0.052278575864816205 0.023744688509336972 -0.054802204111818256 -0.020763096335841998 0.0178823728621085 -0.040621419714215665 0.04530754114664555 -0.053753489505200307 -0.034765318340737934 0.027849518751513442 -0.028050826916342548 0.036354091529613289 0.041745713581739979 0.0062569584905794954 -0.046776816925114359 -0.0045201957687516624 -0.049955857429952455 0.03143886421208391 -0.031063356064079031 0.013362082367213811 -0.012275489015460583 -0.052191123400626427
leaf_weight=33.327421419322491 199.58659946173429 23.896931067109108 107.95624269545078 5.4440457969903937 49.487344846129417 364.40516508370638 121.95172460377216 62.480619661509991 90.676866687834263 317.54529216885567 25.815807960927486 117.99584733694792 48.340266309678555 23.358040355145931 19.503432080149651 7.7476928457617751 218.3952289223671 51.436248511075974 62.446919411420822 9.4866249561309797 27.697818636894226 124.31297439336777 28.748429663479328 34.477290041744709 6.0167952775955191 40.054816707968712 46.55588337033987 211.04989542067051 341.33735619485378 171.39501975476742
leaf_count=214 957 109 685 19 228 1714 512 449 774 1349 205 637 219 151 79 48 1662 197 335 40 134 512 153 179 29 163 232 895 1889 1409
internal_value=2.96519e-05 0.0245851 -0.0192613 -0.0283613 -0.0100199 0.0326596 0.0240166 -0.00840122 -0.0304016 0.0312963 -0.0150317 -0.00270019 0.0461682 0.00161536 0.00210256 -0.00508779 -0.0413028 0.00371214 0.000749617 -0.0195571 0.00835143 -0.00265927 -0.0237134 0.0160904 0.0223742 0.00495743 0.0015034 0.00732281 -0.016977 -0.0424276
internal_weight=2992.93 1316.79 1676.14 844.528 831.615 1057.85 645.1 258.942 219.743 523.149 129.066 611.872 412.745 493.876 196.462 103.25 395.234 470.518 419.081 71.9335 69.9228 176.958 52.6454 62.1751 323.562 347.148 307.093 260.537 449.294 389.79
internal_count=16178 6082 10096 5664 4432 4780 2847 1302 1554 2335 780 2878 1933 2241 853 575 3090 2090 1893 375 361 774 262 313 1378 1518 1355 1123 2574 3071
is_linear=0
shrinkage=0.05


Tree=26
num_leaves=31
num_cat=0
split_feature=19 3 2 20 4 30 23 26 1 24 3 0 20 16 12 11 26 0 26 20 30 2 26 21 2 2 4 0 5 1
split_gain=520.006 129.855 53.7055 56.9532 62.2461 47.3946 54.3731 33.4423 33.2251 29.1302 26.1882 22.9868 21.9806 21.7693 17.8578 17.2761 17.06 16.4006 15.8302 14.9987 14.9437 16.3272 14.2666 13.6548 12.6103 12.5218 12.2888 12.0923 12.0761 11.5878
threshold=-0.27188322942481025 0.9674686116916329 0.66625419123464902 1.0958942421222042 -0.032675932049369201 0.66268539401473958 0.10102843744585435 -1.2049511637701655 0.58427391259844941 -0.20570124977722529 -0.67190830025664872 2.7672303334481869 -0.97484962018477372 0.73098489242005071 0.27217170325381207 -0.4952347747984796 0.24774588494173896 -0.8073509448143511 -0.8760831119902307 0.23362907216124415 0.87820173440618843 0.25584413633828512 0.11353314447885283 0.25220360261024594 -0.032634026799977768 0.14910433790744823 0.27545371165899762 0.99958025079088775 -0.12890819582288252 0.58401774682841723
decision_type=2 2 2 2 2 2 2 2 2 2 2 2 2 2 2 2 2 2 2 2 2 2 2 2 2 2 2 2 2 2
left_child=2 5 3 4 11 6 10 -6 19 22 -2 12 24 -13 18 -16 27 -5 20 -3 21 -14 -9 -21 -1 -8 -24 -7 -27 -12
right_child=1 8 -4 17 7 16 25 9 -10 -11 29 13 14 -15 15 -17 -18 -19 -20 23 -22 -23 26 -25 -26 28 -28 -29 -30 -31
leaf_value=0.013557551044243284 0.044783048371855434 0.049034214038373117 -0.043029234677399136 0.007141160200831994 0.020430112612241709 0.051805185153940031 0.0044622681869679942 0.062047962600204835 -0.040202125309046328 -0.040711097458127156 0.022825095018906914 -0.026718749502013237 0.024829878995215354 0.040888383504610021 -0.061652129245415882 0.0073423403892543902 0.017119125962042504 0.05352033737047876 -0.016904864800686911 -0.024083583592578284 0.056387383977383722 -0.029768475247333077 0.023375123960477525 0.0065359072527332758 -0.038206745988821851 -0.019766218129484758 -0.025177332558696881 0.019562432184968163 -0.10567779268095071 -0.046660260248247362
leaf_weight=13.323154009878634 193.89133754372597 15.602217763662336 196.98110742121935 46.595819421112537 28.8830261901021 321.77609445154667 81.408420354127884 6.7368725910782805 61.200843207538128 385.91315800696611 313.91612934321165 16.875994868576527 27.266069024801254 40.438277527689934 9.5222318395972234 192.36491348594427 47.980114936828613 32.256840653717518 444.7707802131772 50.638418078422546 13.360994040966032 27.506348803639412 16.940073296427727 129.58994488418102 100.62618635594845 35.975219503045082 56.498314924538136 31.968293279409409 4.6151213794946662 6.116969868540763
leaf_count=57 957 66 1511 196 118 1565 326 25 449 2993 1349 92 111 160 59 955 219 119 2537 254 47 143 68 533 590 161 315 149 25 29
internal_value=2.92402e-05 0.0237709 -0.0185227 -0.015216 -0.0175758 0.031652 0.0231588 -0.0317783 -0.00804543 -0.0350136 0.0302823 -0.00964193 -0.0117598 0.0209817 -0.00850859 0.00408814 0.0450966 0.0261138 -0.0134669 0.00200416 0.00897625 -0.00258906 -0.00758951 -0.00206719 -0.0321544 -0.00684879 -0.0139777 0.0488914 -0.0295344 0.021497
internal_weight=2951.54 1294.68 1656.86 1459.88 1381.03 1037.65 635.923 494.971 257.031 466.088 513.924 886.055 828.741 57.3143 714.791 201.887 401.725 78.8527 512.904 195.831 68.1334 54.7724 80.1753 180.228 113.949 121.999 73.4384 353.744 40.5903 320.033
internal_count=16178 6082 10096 8585 8270 4780 2847 3519 1302 3401 2335 4751 4499 252 3852 1014 1933 315 2838 853 301 254 408 787 647 512 383 1714 186 1378
is_linear=0
shrinkage=0.05


Tree=27
num_leaves=31
num_cat=0
split_feature=21 26 3 2 0 20 4 0 30 0 26 1 13 20 0 2 30 11 18 8 11 7 26 11 5 23 0 30 3 1
split_gain=477.364 174.746 73.356 62.071 60.64 39.3848 67.8171 29.2506 28.3992 26.429 22.4154 20.5578 20.168 19.489 18.61 18.063 17.8772 21.7975 20.5991 31.2397 18.3958 16.6323 16.1747 15.8765 15.4042 14.5557 14.1937 13.4139 13.2129 12.9616
threshold=0.31150632347496204 -1.4277129078272279 0.37281004579810401 0.6587537814256329 -0.06100979880349168 0.86868123044259671 -0.032675932049369201 2.7279492205002467 0.4963157861356014 -0.8073509448143511 0.65690452851714076 0.58315877586457121 -0.67793952275477309 -0.97484962018477372 0.99958025079088775 -0.011740103094726588 -0.16528508628806035 -0.44854488004269694 -0.46698834809583006 1.0000000180025095e-35 1.0000000180025095e-35 -0.8373593677494463 -0.087871302557850375 0.098496842449009095 1.5294503611986994 0.63926272111894267 -0.72878871891847108 -0.21101430003891644 -0.4815574831140676 0.57644222042438054
decision_type=2 2 2 2 2 2 2 2 2 2 2 2 2 2 2 2 2 2 2 2 2 2 2 2 2 2 2 2 2 2
left_child=1 4 22 5 -1 6 7 12 -9 28 14 26 21 -14 25 -6 -15 -18 23 20 -20 -3 -2 -19 -24 -8 -4 -13 -7 -22
right_child=2 3 11 -5 15 9 10 8 -10 -11 -12 27 13 16 -16 -17 17 18 19 -21 29 -23 24 -25 -26 -27 -28 -29 -30 -31
leaf_value=0.047839083414241798 0.047756053969239161 -0.014282509517638806 0.011397001331296709 -0.04043451542354199 0.018091854155789646 0.048296888769406986 -0.0038814100145055015 -0.030852752300301239 0.043564214270228142 0.033991218770386709 -0.046499963704733784 -0.049970674698688891 -0.042544993914646681 -0.029581408612039707 -0.04497478183041341 -0.02518070136515695 -0.052456386676499815 -0.072508950141433867 0.042933493674725876 -0.026815508261490595 0.016418568653743998 0.011423658763014415 0.018240842762155311 -0.013491185279906141 0.04426596102143069 -0.031880727019985573 0.044053373862683369 0.010507103193899832 -0.012370385440887697 -0.030356849190622932
leaf_weight=140.16941386461258 348.67946023494005 117.09991873800755 247.58084227889776 281.55501592159271 47.955956473946571 9.8561270087957364 110.23528622090816 17.725282974541187 46.330465525388718 61.375745199620724 189.7864191904664 21.087644957005978 68.198146782815456 132.7504617869854 75.72838494181633 48.510932773351669 25.545715615153313 12.493406459689139 51.576243489980698 49.827113352715969 57.671099416911602 136.00875674933195 119.45386128872633 129.65720238536596 108.50473563373089 80.177820548415184 38.439656272530556 16.221471458673477 100.38260331749916 19.927836373448372
leaf_count=649 1765 539 1023 2142 182 35 548 99 179 238 1680 130 429 846 570 219 172 80 239 335 303 591 564 720 523 555 167 89 443 124
internal_value=2.99778e-05 -0.0135178 0.0302959 -0.0189016 0.0268414 -0.0148391 -0.0177671 -0.0095405 0.0229718 0.00769449 -0.0333713 0.0112324 -0.0121413 -0.0175358 -0.0240093 -0.0036689 -0.0139785 -0.0080041 -0.00446819 0.00681633 0.0197892 -0.000469218 0.0409851 -0.0186782 0.0306284 -0.0156712 0.0157858 -0.0236758 -0.0069463 0.00440638
internal_weight=2910.51 2010.55 899.968 1773.91 236.636 1492.35 1320.74 864.812 64.0557 171.614 455.928 323.33 800.756 547.647 266.141 96.4669 479.449 346.699 321.153 179.002 129.175 253.109 576.638 142.151 227.959 190.413 286.02 37.3091 110.239 77.5989
